encog,BasicNetwork,java,3.4.0,1,1590179381766
[BASIC]
[BASIC:PARAMS]
[BASIC:NETWORK]
beginTraining=0
connectionLimit=0
contextTargetOffset=0,0,0
contextTargetSize=0,0,0
endTraining=2
hasContext=f
inputCount=400
layerCounts=236,101,401
layerFeedCounts=235,100,400
layerContextCount=0,0,0
layerIndex=0,236,337
output=0,0,0,0,0,0,0,0,0,0,0,0,0.0000809051,0,0,0,0,0,0,0,0,0,0,0,0,0,0,0,0.0016314691,0,0,0,0,0,0,0,0,0,0.0000001818,0,0.0000000142,0,0.0000000006,0,0.0000001834,0,0,0,0,0,0,0,0.0000209663,0,0,0,0.018887584,0,0,0,0,0,0,0,0,0,0,0,0.0000000023,0,0,0,0,0,0,0,0,0,0,0,0,0,0,0,0.0000007529,0,0,0,0,0,0,0,0,0.000325405,0,0,0,0,0.0029459555,0.0002669838,0.0122176961,0,0,0,0,0,0,0,0,0.0000089116,0,0,0,0,0,0,0,0,0,0,0,0,0.001629175,0,0,0,0,0,0,0,0,0,0,0,0,0,0,0,0.0000216151,0.0000027213,0,0,0,0,0,0,0,0,0,0,0,0,0,0.0000000578,0,0,0,0,0,0.0000000011,0,0,0,0,0,0,0,0,0,0.9598455874,0.0000253793,0,0,0,0,0,0,0.0016562614,0,0,0,0,0,0,0,0.0000000002,0,0,0,0,0,0,0,0,0,0.000000237,0,0,0,0,0,0,0,0,0,0,0,0,0.0000000078,0.0000070644,0,0.0004248802,0,0,0,0,0,0,0,0,0,0,0,0,0,0,0,0,0,0,0,0.0000000001,0,0,0,1,-1,1,1,0.9999819359,-1,-1,-1,-1,-1,1,1,-0.5710083551,-1,-1,-1,1,1,-1,0.9658680587,-1,-1,1,-1,-1,0.9902749696,1,-1,1,-1,-1,0.999999523,1,1,1,-0.9999999854,1,1,-1,-0.9856464607,-1,1,1,1,1,-1,1,-1,-1,-1,1,-1,1,1,-1,-0.9999999392,-0.9999978317,1,0.9999999999,-1,-1,1,-1,0.9918881126,1,1,-0.9999824293,0.9999999648,-1,-1,-0.9999999569,-1,-1,-1,1,-0.9999960075,-1,1,1,1,-0.9999999233,-0.9999556446,1,1,1,-1,1,1,-1,-1,0.9998814987,1,1,1,1,-1,1,1,-1,-1,-1,1,0,0,4,0,0,0,0,0,0,0,0,0,0,0,0,0,0,0,0,0,0,0,0,0,0,0,0,0,0,0,0,0,16,0,0,0,0,0,0,0,0,0,0,0,1,0,0,0,0,0,0,0,0,0,0,0,0,0,0,1,0,0,0,0,0,0,0,0,0,0,0,0,0,0,0,0,0,0,0,0,0,0,0,0,0,0,0,0,0,0,0,0,0,0,0,0,0,0,0,0,0,0,0,0,0,0,0,0,0,0,0,0,0,0,0,0,0,0,0,0,0,0,0,0,0,0,0,0,0,0,0,0,0,0,0,0,0,0,0,0,0,0,0,0,0,0,0,0,0,0,0,0,0,0,0,0,0,0,0,0,0,0,0,0,0,0,0,0,0,0,0,0,0,0,0,0,8,4,3,4,4,10,1,3,16,1,5,4,5,14,19,1,0,0,0,0,0,0,0,0,0,0,0,0,0,0,0,0,0,0,0,0,0,0,0,0,0,0,9,0,0,0,1,0,3,0,0,0,0,0,3,0,0,0,0,0,0,0,0,0,103,39,0,0,0,0,0,0,0,2,0,0,0,0,0,0,0,0,0,0,0,0,0,0,0,0,0,0,0,0,0,0,0,0,0,0,0,0,0,0,0,0,0,0,0,0,0,0,0,0,0,0,0,0,0,0,0,0,0,0,0,0,0,0,0,0,0,0,0,0,0,0,0,0,0,0,0,0,0,0,0,0,0,0,0,0,0,0,0,0,0,0,0,7,0,0,0,0,0,2,0,0,0,0,0,0,0,0,0,0,0,0,0,1,0,0,0,0,0,0,0,0,0,0,7,0,0,0,0,0,0,0,0,0,0,0,0,0,0,0,0,0,1,0,0,0,0,0,0,0,0,0,0,0,0,0,0,0,0,0,1
outputCount=235
weightIndex=0,23735,63835
weights=##0
##double#63835
   1.156851532,0.0205349194,-0.8126581127,-1.4142401126,-1.0864467563,0.0259979617,0.7647088904,0.491340883,0.1555994848,0.31380315,-0.0644969614,1.4935261824,0.6736885777,-0.4327008765,0.3806204634,0.1953127689,-1.6175649774,1.3083549509,-0.3302471896,0.8935700249,-0.4334633098,0.1473413593,0.9400432708,0.0134396227,-0.8371837896,1.1373525834,1.243147853,0.8665147984,-0.1701426571,0.9574366001,-0.544251598,-0.7209546482,-2.7815761019,0.6412708199,-0.6065654444,-0.6879025729,0.7822888347,-0.6070780376,0.2392068453,-0.625729268,0.0427634218,0.3616221314,-0.6168305616,0.2445188901,1.7917843611,-0.3324893899,1.6465530575,0.6371835197,-0.2724729114,0.7110987651,-0.8842498385,0.6745624717,-1.1934439787,-0.5109389043,0.5978843932,-1.4952568805,-0.3966120683,-0.36149016,0.5546616984,1.7009457489,-0.1109784967,0.6140027712,0.4474273271,0.5546419491,-0.0016819189,0.8933057227,-1.5888622818,-0.0960869687,0.0387095407,0.9374298422,-0.6238024602,-0.7685559163,0.0897517279,-0.129238588,-0.3401461478,0.3245595577,0.1933668539,0.3651214014,-0.2637793985,0.4543159185,2.1514892466,-1.7003473754,-0.2192215994,0.2438032876,-1.3515234585,-3.215233941,-0.8312292287,0.7746450797,0.4335850704,0.9026472827,-0.5798017862,-0.6397040595,0.0008882873,0.5128950731,-0.5042251722,0.6258908182,-2.5061127943,3.6974666217,0.9835614167,-0.6162492642,0.9953027089,0.2361380933,-0.6329311072,-0.3398762698,0.2084931431,-0.5053318608,0.6336652291,-0.5324839638,0.2037495801,0.0550708259,-1.0113190857,-0.1990663549,-1.1231168898,-0.9690524695,0.6451405235,-0.3943476717,0.9882521893,1.3749798478,-0.5991746457,0.0590068727,-0.0808567211,-0.6789226125,0.383193959,0.5880137368,-0.7998467093,1.6811689145,-0.1523896461,1.2158945638,-0.2362447849,0.1931925623,-0.0793360059,-0.469869068,-0.4038391321,3.341222741,0.5573690493,0.3538542661,1.358587349,-1.164181529,-0.6118042506,0.3873526761,0.4217379742,0.4787169647,-0.6300625988,-0.3642387986,-0.9257806664,1.075726998,-0.873905206,1.0203838182,0.0650735843,1.2837647252,0.3874008921,-0.1579174089,-1.2227127373,-0.8732902659,-0.6571205393,-0.1699338303,-0.5983095819,0.3534308132,-0.7292365527,0.8293581735,0.8635993816,0.2872066435,-0.468586536,0.8555443343,0.0750260431,-1.264138772,-3.2629881399,1.0081942698,0.7360163169,-0.2835716538,0.562206873,0.890078405,-1.3292154239,-0.946819783,0.4590444208,-0.5038452974,0.2770820428,0.5769404558,-0.3007683709,0.3399861655,-0.2671759271,0.1506163973,0.4141258702,0.3177931311,-0.6972410628,-1.0727389559,0.5845928681,0.1708824576,-0.117635632,-0.7993067049,0.5798584121,-0.8680736472,0.5073017029,-0.3391807356,-0.3999603144,0.0036939277,-1.225490387,-0.3108195689,-0.0242064328,0.6976687808,0.4412580713,0.2728556404,-0.1702358238,-0.6229043267,-0.4314263475,0.361521546,0.6476975182,0.5515034166,0.7890184503,0.9512623435,0.6233418709,0.8316810094,0.3176324957,0.3090844881,-1.5627388854,0.8705048679,0.2120374172,0.9277488898,0.3716355447,0.8456650316,-0.4275333303,0.0063219543,-0.9041549139,-0.1968402003,-0.7619276741,0.897364366,0.8100290566,0.8248659532,-0.4611361837,-0.1642356286,-0.8242270312,-0.6787802116,-0.7720213571,0.8405582009,-0.1397285556,0.8235787773,0.7631282891,-0.4425396333,0.8447125057,0.8481574094,-0.5342499778,-0.498259114,-0.1908160162,0.7299620086,0.7361014761,0.9764483835,0.6613523906,0.6405341296,0.1990645563,-1.7405640981,-0.9335454234,0.6801839861,-0.3079866334,-1.0012869158,-0.9766753236,0.4165664167,0.630056831,-0.046489206,0.1406280677,0.0545442285,-0.526704166,0.7238039425,-0.7665290865,-0.2307928177,0.5057730448,0.2428749298,0.3059672203,1.2230411536,-0.2232720262,-1.0045942767,0.0946979658,-0.3763909915,-0.1732920028,-0.6485028935,-0.8261551057,-0.182287164,-0.4896904688,0.9630962365,0.5669914895,-0.7006780361,0.8120998,-0.2844113001,0.8121081439,0.4110076395,-0.6947585473,-0.6046089268,-0.8023445982,0.3265089736,3.1057598449,-0.2562469159,-0.7786015404,0.7411020552,-0.3196637523,-2.9085403776,-0.1542722353,-0.5924156295,-0.8856082365,-0.2457430866,-1.068667451,0.2276603038,0.9965643928,0.9977290347,0.2535810305,-0.2066410611,-0.7246282094,-0.0208530059,0.2696412973,-2.0546867599,0.2633134542,0.2109134727,1.7744201443,-0.0325346088,-1.0111922002,-1.6157488751,0.8562023132,0.4375146805,0.3709753275,0.6067746013,0.5832469149,0.8776488199,-0.3634424973,0.1561757672,-0.5880905222,0.2044574737,-0.5391328518,-0.3650230982,0.2679443286,0.8663112243,0.2403492819,0.6459165039,0.9858418934,0.18686234,-0.5023217518,-0.7700917638,-1.1047174677,1.0105192536,0.0781440364,-0.0631933291,0.7720406009,-0.7408017934,-0.2264817319,0.0927095566,-0.619040774,0.7279115632,0.7082186069,0.7977649757,-0.2085407687,1.0293466502,0.6922718531,0.8457542469,-2.4324692319,1.1356153785,0.6305440547,0.7723733904,-0.1349811246,0.2316562284,-0.9659627531,-0.2592236448,-0.0558313769,-0.40522953,-0.4763570078,-0.4889231521,-0.7287350368,-0.452811028,-0.0055867798,1.1830725241,0.8932432642,-1.0276674382,0.7465119592,0.3048537061,0.1287713869,-0.3835299522,0.5311781763,0.5915453385,0.0449255893,-0.989977207,0.8829507443,0.7335165002,-1.9198227006,0.7338765052,-0.2001845349,0.7664222179,-0.1663044635,-0.0285891073,-0.3286755078,0.6076047753,0.3243325649,-0.0711651884,-0.7430057231,-0.0372156056,0.1910130299,-0.830279216,0.662658401,0.503906287,-2.0907608533,0.2289595127,0.9655160268,-0.7494192344,-0.222891825,-0.549009423,-0.9346149753,-0.1136460954,-0.9379493712,0.3747474314,0.5338020175,0.731136678,0.4269531272,-1.2481310447,-0.8158778127,0.465302757,0.1816381872,0.4855722687,-2.9171704839,-0.9974853338,-0.6544197108,-0.0798277603,0.0801904191,0.2441812681,0.2060393065,-0.2216548202,0.3097556662,0.3187695741,0.5121131355,2.7857479964,0.0738964404,0.7265300613,0.6153549333,0.1918511526,-2.5599955025,-2.0725611441,-0.9250416091,0.7945713646,-1.4257531906,0.7456337799,0.2616527343,0.5962821595,2.1941327324,1.443116829,0.5779504964,-0.1528876031,-0.6245796174,0.6861445684,0.1101691911,0.7073207564,0.4351606059,-0.6564784144,-0.8227754334,0.1242306543,-0.3011701651,0.8148942552,-0.021796414,-0.1252514891,0.3034332748,0.2024031361,-0.5571187662,0.4070145299,-3.8322444299,-1.9924000029,-0.4240689306,-0.7739900225,-0.724394401,0.839604114,-0.8675833261,0.2489050371,-0.2336697688,-0.7499434587,-1.6891515977,-1.8693097633,0.244094241,-0.0988764831,-0.1099387413,0.35345574,0.6138457611,0.3789154357,-0.6636636687,-0.7272977969,0.8836468383,-0.5216941655,-0.8386050542,0.1165508178,0.5269054112,0.385128667,-0.1519736615,-0.2036972513,0.7706421745,0.3058274222,0.6761597734,-0.4301846373,-0.3376469412,-0.4536846542,0.076309226,-0.5793674572,-0.7917077534,0.2158385579,-0.8134264495,-0.6558757563,0.2043850495,0.6814558206,-0.8385736291,0.2158934489,0.5921987194,-1.1627635795,1.0373031295,0.124600544,0.1227305372,0.0995921215,0.8230165767,-0.6688896849,0.913862319,0.0706798784,0.6352353677,-0.7536418309,0.7429498074,0.4650518052,0.4860954362,-0.210265271,1.027399163,0.139326304,0.5183239896,-0.9408520304,0.1388045184,-2.2644939358,0.1120437747,-3.2240874706,-1.0583239558,-0.1744611245,0.1006247898,-3.4223653827,0.7386763393,-0.4205517388,0.954050469,-0.7985375429,0.8320328108,0.0135332645,-1.2800836786,-0.6067164377,0.039945247,-0.6985281484,0.4134047318,0.066398117,0.8034863964,0.4727952061,0.5867087686,0.2895454532,0.9426329796,0.5089123889,0.6411317088,-0.5994492454,0.3278856931,0.2454693698,-0.2173422372,0.4316758497,-1.0195355505,-0.8596863788,0.1607832052,-0.9283882194,0.906483554,-0.0713110729,0.5697530555,-0.4602037015,0.4574276764,0.1489514966,-0.9952253125,-0.1382816806,0.4009545636,-1.264346942,0.6664760997,-0.0513745073,-0.3663683862,0.0833220145,-1.0435042793,0.2256007346,0.3388311552,-0.7579163661,0.6146877692,-0.3296432841,-0.8031074664,-0.1051274596,0.0968041142,-0.1137689997,0.8207305744,0.5723853486,0.4222696189,0.218609653,0.0658142451,-0.2703859063,-0.1477365481,-0.0077612848,0.4068882322,0.083180495,-0.3442988897,-0.8345130081,-0.8412542891,-0.1289646626,1.5033834673,0.7394536429,0.9067810513,0.6994904188,0.8392938076,0.975036683,0.8407110587,1.1199705457,-0.8619498677,0.2922871386,0.2610849735,-0.0764242797,0.8972098796,-0.6005204089,-0.832977245,1.0710040613,-1.2526918841,-0.0572848984,0.0547303122,0.7027756876,0.0002793839,0.7412067147,-0.3316032412,-0.0392230813,-0.7230963554,0.2249314792,0.6015790297,-0.0939698596,-1.136993489,0.5536685484,0.8773200975,0.3093412473,0.1877432891,-0.0458410601,0.9529866718,-2.2992800813,-0.7277214201,-0.8009505411,1.2953363738,0.5464776764,-0.3228420215,0.4450984471,-1.2040364095,-1.1937984481,-0.2757554708,0.0179940276,0.2857468528,1.9231237312,-0.4578653322,-0.6389359586,-1.042429312,-0.1637646773,1.4483418015,0.0001608571,0.113222051,0.359609097,0.2351770873,-0.2988444871,-0.0151056602,-0.8990142187,0.1251921176,1.2126836852,-0.3283002304,-0.6787170515,-0.3053147438,-0.6296539441,0.7930203588,-1.8769013993,0.5118632973,0.7339983517,0.1715676142,0.5581967722,-0.6368355589,1.339825597,0.2688015334,-0.0902231309,-0.8301982347,-0.254977648,-0.5998933497,-0.8650111601,0.1025076734,1.6741455977,-0.0990756951,-1.5900522877,-1.0961404362,-0.0967048776,1.41554994,0.3654826071,1.6823065052,0.3364959144,2.1269993551,-0.4811560809,-0.5190420313,-0.1008670629,-0.0218401595,-0.3512699295,-0.5875963057,-0.1035701652,0.6036822682,-0.6201366782,0.2373772688,0.8329099519,-0.0966306274,0.7206790744,-0.2845293476,0.2153888416,-0.1862259632,0.5415139977,-0.2600594273,0.6116038637,1.2478381727,-0.0075740068,1.7028356235,0.3811860988,0.2043623909,-0.5298208986,0.9457947434,-0.4508512023,0.9304429954,0.1191572764,-0.4739078708,0.60418365,-0.2158576592,0.6463138233,-0.6071526213,-0.0497749904,-0.5576631299,-0.6696678065,0.3131568507,-0.2406719271,0.7086598409,0.0914394839,0.0333242235,0.4407543537,0.7373836744,0.5814830309,-0.9047564545,-0.9001523905,0.8297446791,-0.402645476,-0.103486923,0.2666292068,-0.8606278858,0.1650741969,-0.5435066973,-0.6512697808,0.4323230881,-0.4360899271,0.3625771043,-0.183152578,0.3784939856,-0.9991842937,-0.1589826742,-0.7491441651,-0.170735744,-0.0357862514,-0.5886766911,0.6697176902,0.6871944677,0.2701087996,0.7514214916,0.1836965311,-0.3800312214,-0.5331202963,-0.7184208017,0.3844853173,0.5034010327,0.8980521795,0.2189787316,-0.4110832196,0.1966267071,0.1290007403,-0.0734297594,-0.187455374,-0.496530708,-0.5009800411,0.5957843915,0.6625131953,0.0388875959,-2.2583516505,-0.0178656571,0.8373453025,-0.2032567786,-0.5041108909,-0.2201791735,0.2285995016,-0.2073509629,0.1397214207,0.6147621684,0.4232133101,-0.0632224214,-0.32075421,0.0149198236,0.2882635315,-0.7854538884,0.1244180351,0.2776861168,-0.8650765965,-0.6073864082,-0.7185289425,-0.967933181,-0.2357771062,4.3004157758,-0.4292543184,-0.8763795333,-0.2432247226,0.4957195816,-0.9279314213,-0.0148072305,-0.117603322,-0.4231701223,-0.5663320855,-0.5553198678,-0.770296155,0.024057202,-0.1229364349,1.0713882823,-0.5175378233,-0.6393875071,0.9167165825,0.9031936671,0.1446299072,-0.5749819463,-0.5607307622,-0.5075585021,2.5435991226,-0.7638019327,-0.2883249848,0.5599238162,-0.3017050949,-0.7910034214,0.8032961929,0.9219950653,-0.3832412969,-0.0307905115,-0.8308622282,-0.8517976137,-0.5868514404,-0.8803527327,-0.9502577066,0.8120166663,0.0544604592,0.0358034488,-0.8585030385,-1.3114884045,-0.2105110042,-0.8576239889,-0.6114781864,0.5159064289,1.7105344718,-0.5715126753,-0.2252795071,0.1758091174,0.1417008422,1.5650008058,-1.6037843478,-0.069125177,0.6709707678,0.6941922669,0.1999560411,1.0570074507,0.8852660827,-0.5493084787,-0.0189657443,0.4592401535,0.4405911261,-0.5930360389,-0.1232782605,0.9735832697,-0.8423775094,-4.3999223655,0.6418634758,-0.7001976874,-2.0451902077,-0.0395102348,0.3054179606,-0.0966480148,-0.4699090772,0.1253175469,-0.1139657273,0.5199716913,-4.6689574119,0.6390396487,1.2981078051,0.5118077553,0.5885570527,0.4763214646,-0.024672981,1.7756489479,-1.2644190032,1.1567150862,-0.2217124068,-0.0301652403,0.30919067,-0.2665438617,-0.5790289708,0.6339960924,0.7115314799,-0.2657040197,-0.971178615,0.6750885859,-0.0520461411,0.2346063778,-0.5057460572,-0.0914442325,-0.8956140986,0.0601899176,-0.7387158923,-0.4955141502,-0.8356924961,-0.2500678414,0.0861487588,0.3312664377,-0.8326407195,1.4127597895,1.053862988,-0.5362021877,-0.4418148343,0.8826417178,-4.9372560952,0.0733305114,-0.0266713947,0.2211475724,-0.6300223571,0.7741361803,0.3431235036,0.2021253455,0.7951231359,-0.917512384,0.5387423986,0.620475067,-1.078593242,0.3263751918,0.4575848813,-0.2522424818,0.6703989071,-0.8452068858,-0.62206006,1.4968604745,0.3603665221,0.5673839229,1.0698630863,-0.5493539221,-0.8298945314,0.8733374495,0.0097718416,0.1111726172,-0.1149351803,0.3307229846,-0.5935507675,0.4374269307,-1.0042521038,-0.8788831124,0.2679556337,0.0254619486,0.211429465,-0.7659912989,-1.4456068301,0.6219589509,-0.3810166601,-0.6185691911,-0.2479609262,-0.7006413869,0.7541424794,0.612940575,0.6739207506,-1.1589795377,-0.628470775,0.0330423169,0.6215833705,-0.3945878941,-1.713647312,-1.7850633022,0.7735969361,0.6323807643,0.018640783,1.1382749771,1.0425682273,-0.2367152711,-0.9930383099,-0.3470767968,-0.7859312473,-1.4017795017,-0.2856379102,0.8766817115,-0.4480435616,-1.0130564769,0.4014368941,0.7402615132,-0.5141742827,0.5315151949,0.3868642005,0.788176753,2.1097917242,0.5834118539,0.3971245008,-0.1167468523,-0.5970674035,-0.6333078187,-0.5840234412,-1.1222690204,0.6950167365,-0.1818989694,-0.4490472531,1.166298163,0.3177456446,-0.2021896891,-0.0248857608,0.8014062447,-0.8251523861,-0.0398141621,-0.372131144,1.0032462656,0.1667168719,0.6712843111,-0.2463308703,-0.0097087143,-0.5813850653,0.7590405911,-1.0840582792,0.5914557502,0.287702976,-0.0376426779,0.649268065,-0.7772888337,-0.6436149621,0.4620305378,0.596190695,0.6978861168,-1.1358357808,0.1107928831,-0.3323021602,0.0402649228,-0.1315250683,-0.3992041272,0.1544778613,-0.359658433,-0.033352874,-0.4887306038,-0.5168316969,0.8007802067,-0.6233066712,-0.0431698494,1.3597529964,0.1147654863,0.185184509,0.9516938841,1.0069231509,0.6909504161,0.9084708968,-0.8280918755,-0.7568598274,0.1498118981,0.3499910774,0.319446169,-0.3367890723,-0.1829431339,0.165004975,-0.6264014574,0.2316390778,0.8309451777,-0.251893808,-1.0262633099,-0.7301607293,0.9933700107,-0.4059641468,-0.852790696,-0.4323149065,0.3314332518,0.7101127084,-0.6202020445,0.891728727,0.4504246164,-0.1771178694,0.6382740275,-0.2481971641,0.097266537,0.6900823661,0.0707761,-0.7992814186,0.2775009178,-0.3011003322,0.5863913356,-0.7713495655,-0.3897849254,-0.519876748,1.0607303946,0.3280197509,-0.9919830432,-0.1037812656,0.5863712713,0.6482610271,0.2528751204,-0.4800084361,0.3487849384,-0.8049495441,0.2127887605,1.0079920034,-0.1653499027,-0.1631494126,0.7267007153,0.1497458902,0.4649356083,0.2259033935,-0.9018467939,-0.4121064767,-0.107821127,-0.1616749817,0.2353491479,-0.5602657168,-0.4680999543,-0.5614462247,0.6195937763,0.6573540526,0.1363972735,-1.6583621282,0.8874748359,1.1534095073,-0.9048211041,-0.16525161,0.8901488181,-0.5757584936,0.5601129704,1.2710228817,0.6297555137,-0.3083898041,-0.2016257477,-1.1302648832,-1.2453171428,0.0797375142,0.462030986,-0.791005542,-0.0534954403,-0.0319962215,0.3088154246,0.2998914492,0.9814042952,0.0172388727,-0.6718976398,-0.5710042589,-0.4222686048,0.327385581,-0.1582212386,1.1774652913,0.6313364074,0.5875609178,0.9385717361,0.884725902,0.1530010492,-0.6789002948,-0.2341556816,0.0743733772,1.137096884,-0.4669347457,-1.2079132487,-0.8307163127,0.0389394667,0.6421411311,-0.3304316955,-0.9029060583,-0.2789543639,0.9064090795,0.7254216445,-0.0695168346,-0.9227977532,0.6705566542,-0.8509973617,-0.3032744057,-2.0565669198,0.9091613239,-1.4414728029,-0.3431482927,-1.1143067455,0.3786300991,-0.2366763876,-0.5349717486,1.5843887462,-0.3644505981,1.2870590008,0.2419416205,-0.1957314871,-1.3670197668,0.3927684977,0.9575586797,-0.3125906115,-0.8939920141,3.0433744982,-0.7319810814,-1.4524280998,-0.0077969473,-0.4862834328,1.1442319973,0.2838299748,1.2127948294,0.392311415,1.0972388655,0.1013880057,0.1902748978,-0.1450880685,0.991833929,0.0278949269,-0.6687498184,-1.054752698,-0.1519287159,-0.4403538681,3.1962911635,-0.0986420535,-0.2567916799,3.62864362,-0.2756028707,0.1300678509,-0.8330890042,0.304204586,-1.6213800087,0.4391256735,1.4187455855,0.5955277102,0.7744658496,-0.8696050873,-0.2786148653,0.1307058186,1.284527811,-0.9393737391,-0.7857581606,0.8269724437,0.5337528332,0.3387739896,-0.2949603592,1.8879854198,-0.6578923575,-0.6936956393,0.7681186787,-0.5461122495,0.1410264052,-0.9535728397,1.0504529823,0.4383879605,-0.8911034649,0.0614030019,1.2235523711,0.2210004033,-0.7486130873,0.3799456013,0.3556005627,-0.1951004581,-0.3051145907,-0.3566638516,-0.3711442378,-1.5851316971,-0.575215011,0.8917793071,0.1861494389,-0.7284452056,0.5698689709,0.5812891126,-0.3496718556,-0.2969460722,1.1039444785,-0.3660470598,-0.9466309145,-0.5442722728,0.5073468207,-0.4950655423,0.5038002698,0.3469490258,0.2534514739,-0.7649313202,-0.1024758551,-2.8132915615,0.5731027393,-0.6748862911,0.030911397,0.8861675626,-0.0831228009,1.1262712922,0.2772888593,-0.9471640659,-2.3032893444,-0.2905430367,0.0032284093,0.0006575624,0.7589215695,0.0682657798,0.3389139932,-1.0013352599,0.7398006859,-0.5454572953,-0.8271189278,0.2735504595,-0.5622909268,0.9645353863,0.7564308503,1.4236786241,-0.627628648,0.1924964014,-0.1260231159,1.4251960362,-0.7951824202,3.3396474369,0.2328888125,1.1162490979,1.3094146788,-1.3736403786,1.8425650217,0.7393768937,-1.5884808671,-1.0128111587,1.0110524405,1.2768812637,0.5148149942,0.3153450567,0.4602256732,-1.3073524128,1.777331026,0.6200591113,-0.8020780656,0.9172678175,-1.2282609124,1.1490380747,0.230863921,-0.0351295535,0.3075273869,0.6468649495,1.0861806802,-0.0876371866,-0.5562481213,0.4905624889,-0.1396487856,0.3914927248,-0.439148623,1.0105451474,-0.7581505817,-0.6138563509,-0.5071743269,1.3187492779,-1.2527201543,0.5528412897,-0.3581645363,0.84687163,0.4302961502,-0.201080248,-0.1412324496,-0.0521164067,0.1913297717,0.0144651743,0.5357454293,0.6409622954,-0.6575711844,0.1001815877,-0.9732079313,-0.4707720214,-3.8163258608,0.3997937085,-0.0348282906,0.7583544965,-0.6812066654,-0.6881683723,-0.8033696026,-0.6660858736,1.3277413204,-0.6214675942,0.1729359968,0.0460109502,-0.6793798004,0.6584499733,-0.1358184337,-0.968096594,-0.7142604867,0.309717173,-2.0592575696,-0.5414025308,-2.6511915552,-1.0937496208,0.2383005792,-1.2206386262,-2.3910691529,0.5866435774,0.0153970858,-0.0304026442,0.8472680498,-0.8173325041,0.1266658662,0.6806917327,0.817265566,-0.4181196083,0.0829772101,-0.6633481124,0.5975401975,-0.3160184445,4.0283936034,0.9058001928,0.3147784433,-0.4770661006,0.2071836888,0.5460036989,-0.2506852141,0.8148640665,0.0437176854,-0.1282131623,1.2559662198,-0.7820246045,-2.8055961323,0.4712637506,-0.8427505842,-0.6146397873,-0.2011283307,0.8123946728,1.0462542548,0.5956289656,0.1764041572,-0.0218443395,-0.6841774066,-0.387555448,-0.7594545285,0.2539919458,0.0930165854,1.4255439742,0.7085594386,-1.4076773874,0.5952950959,0.2768836574,-1.4532644915,-1.6908506749,0.2064030125,0.0871266282,0.5386561005,0.2323553852,0.8228037367,-0.4702072729,0.3447488612,-0.6036839769,-0.8445279442,0.6902066229,-0.7363704088,0.3346533672,-0.6016169532,-0.381557337,-0.9005113514,0.5633549008,1.1920408479,-0.5692706362,-0.1938232873,0.4562811723,0.7160168382,-0.2739006162,-0.4115210289,-0.9371038254,-0.8712231318,1.0611473951,1.1685531768,0.6106060808,-0.5127363638,0.3913164931,-0.3584893025,0.6852842093,-1.2059235845,-0.0877697692,-0.739022875,-0.7620425881,-1.4596232893,0.3362973715,-0.10651902,0.361918328,0.9301778403,-0.026904151,-0.8915160431,-0.5731867128,-0.3189158433,1.3975734582,0.8958855556,-0.5812323291,-1.1741695073,-0.9806742678,-1.0833458969,-0.7079947146,0.8897984242,1.0220147145,-0.4013019257,0.4882543072,0.0401646732,-1.8271890905,0.3325536087,-0.2172150318,0.6945651275,0.2625178648,0.4876858616,-0.3844073667,0.2095631742,0.9656340259,0.9888199482,0.4099640832,0.3457611642,0.6156745059,0.2945721806,1.4105310006,1.0597830406,-0.1569602047,0.3415615605,-0.5575143328,0.3848168598,0.7938481285,-1.4251859254,-1.1947349858,1.1949045692,0.3163085055,1.3716032224,0.2352444567,1.3515131578,-0.3646020891,-0.4721743474,0.3791027156,0.090304369,-0.6567256059,0.0433042433,-0.355448789,0.640521791,0.5663597998,-1.8969214867,0.9617517294,-0.8695067936,1.0059143252,-0.1551403923,-1.2517964426,-0.3751199559,-0.8849877859,2.1160093372,1.2425984239,1.9232787174,-0.8242739017,0.9276722933,-0.4228572442,-1.0040252285,0.8598142113,-0.546160773,0.7060752245,0.1961232078,-0.354706704,0.0504260868,-0.083998531,0.8798395511,-0.057056149,-0.7958183182,0.4121861214,0.4413395071,-0.7712200709,-0.4497324413,0.1758647711,0.9834251115,0.773472042,0.4278928575,-0.7013753638,0.064150503,0.2549416249,-1.4013811365,0.8659695825,0.2606704122,0.1317102301,0.4609901005,0.0624014048,-0.2574695958,-0.1284580555,-0.0867913419,-0.226563917,-1.5512931834,-0.3037146346,0.5452552737,-0.641309983,-0.0506212722,0.8119428424,-1.6082006537,-0.2305781311,-0.3310700515,0.2806059766,-0.2598502346,-1.5408675348,-0.1639484997,-0.1107859251,-0.1079953555,0.6273407562,0.4500787626,0.8322091547,0.37312094,0.9122954635,-0.2973083356,0.2667374492,-0.4605822116,-4.3083153999,-1.1741234072,-0.5446734497,-0.6669803869,-0.0890829486,0.6966578152,0.3907596305,-1.4881257946,0.8413842285,-0.0069708231,0.955866033,0.7269038912,-0.5053660613,0.3382492297,-0.9470651893,0.6117454922,-0.7540783646,-2.1723697847,0.2603248316,0.4956878013,-0.1476917095,-0.5216185307,-0.127965099,-0.2289056531,0.7691027381,0.7919766001,2.0800176733,0.5021279654,2.3141739539,-1.5005027662,-0.5271225982,-0.1714125838,0.5864841576,0.3740726409,-0.4063354531,0.8750178446,0.1606575921,-0.3623303872,-0.6706408048,0.122304773,1.139064853,0.630269697,2.3324518877,-2.1527282325,-0.8966439569,0.1766467746,-0.526570897,5.057266985,-0.4952614231,-0.8684082671,-0.4988570865,0.0197573078,-3.1087492477,0.0044720384,0.0306056649,0.9328884767,0.1059029797,0.433374815,-0.0105820172,-1.798989776,0.664826733,0.6530726864,0.8147495149,0.3579633109,-0.9453144297,-0.9850718148,-0.7353630541,0.7161509733,-3.7513571911,0.985740504,0.4016734826,0.3912830845,0.0269873568,-0.7254178811,-0.8664020091,-0.4258976093,-0.6584852848,-0.0082601641,-0.6600365872,-0.8067980301,-0.2000776948,-0.8631654095,0.5331476995,-0.2080002533,0.1515979012,-0.2444537829,-0.8604846578,-0.7426749621,-1.0149277111,-0.8755629688,0.2408922519,0.0251418595,1.6900609532,-0.6033351008,-0.0646777255,0.1348387698,0.0987906992,-0.1815291149,0.4143064542,0.8930301828,0.3106291268,-0.7244758068,-0.9941249283,0.5570977146,0.8790364151,0.4820882798,0.7835856447,0.9744555874,-0.4266282097,-0.6808360462,-0.692720445,0.3767891382,0.0283201352,-0.5854302936,0.3773421284,-0.3339365664,0.715394566,0.8203050626,-0.2462267127,0.7155456406,-0.9715629016,-0.2939559331,0.8688310102,0.6161572823,-0.8300610811,-0.0121816024,-0.7016781684,2.6751496179,-0.3309184662,-0.5152147235,-0.4941978879,0.3206368823,0.7163545206,4.6241749681,0.1155138787,-0.8455662487,0.6418536967,-0.0731481252,0.8242570405,-0.3043662689,-0.2260631368,0.3486528126,0.1966558608,-0.7980771396,-1.2627164783,-0.0337833917,0.4851373842,0.1852274508,0.3830781365,0.5170866907,0.2978370937,-0.7402886349,0.0551092186,0.4344100668,0.4539585104,1.6184026963,0.6010121494,-0.9704210613,0.6997249359,1.0255866216,0.345450331,0.8680329634,-1.3214905661,-2.5379040181,0.5544011527,-0.3316997641,1.1500267231,-1.1970635061,-0.5119508833,-0.0711016947,1.6785387211,-1.0274767632,1.2655590777,-0.8763845724,-2.9329710108,0.001232895,1.3188529858,0.2933815274,-1.4242657828,0.6631516348,-0.4762198051,-2.1744820412,-0.8477582937,-0.3675793184,-0.0682264187,0.6784329558,0.008127952,-1.3528105986,1.5068055149,-0.486229133,-0.5366021584,-0.5205522747,-0.0280940414,-0.1943252348,0.3174903837,0.688249591,-1.4958025684,-4.7361831636,1.4319218731,-0.0482747268,0.1833562553,1.0288837387,0.7755725814,0.6260438891,0.6657498761,-0.6855573313,-0.6721346309,-0.3899921866,0.1129908931,-0.3428696132,-0.8760905653,0.2726931269,-0.2845044955,0.7667901191,1.4561780752,0.1798438544,-1.2960281868,1.0290109648,-0.0307303118,-0.5623961255,0.0620074138,-0.6027768131,-0.1270276325,0.1771644674,-0.3641907915,0.6319239262,0.027223322,1.0771015123,1.172011985,-5.885384014,-0.1841826426,-1.1583584885,-0.3634009647,-0.5038975645,0.7344758577,0.9101528018,0.6025172866,0.3369311019,-0.7016520939,0.120440259,-1.0986353847,0.8312936405,-0.4797227836,0.9995287296,-2.1947578492,-0.4076885677,-0.5723403415,-0.4514448195,-0.6943727245,0.5358361726,0.9369420643,0.8944049951,-0.5841208782,-0.2065487294,-0.2402636994,1.2483364171,0.5559413481,-0.4998640479,0.833453795,0.0251859162,-0.0737760918,2.9651462265,0.5920266326,0.9186114232,0.1897241488,-0.0956579971,-0.2783714636,0.7193508097,-0.7580906155,-0.411218889,0.2962702697,0.5942043963,0.2964125826,1.1758283907,0.8884105113,-3.6287301068,0.605144791,-0.5567933725,0.734495384,-0.1233309831,-0.3792554077,-0.5969166454,-0.2113842442,-0.8017798619,0.8771543551,-2.3557261539,-0.0458150745,-0.4432290465,2.6017668288,-0.738730653,-0.1475854486,-0.5793815247,0.7491580412,-0.198101534,2.6750173916,0.7816002989,-0.7433069916,0.7582154978,-0.9373439676,0.4260167733,-0.1791684407,-0.8856778108,0.3007947618,-2.4916425518,-0.5663233825,-0.3117801333,-0.2128556144,-0.0250580897,-0.7118999496,1.8243715204,-0.207221114,-0.5158464186,0.9503270243,0.7366016465,0.9688360032,-0.24769448,-1.6726846408,0.009898808,-3.1417423818,-0.2349828309,0.6175729621,-0.9746900745,-0.8892670725,-0.4280944724,-0.2315828976,0.6859339616,-0.3024961477,1.7763614651,0.1622826014,0.9508777,-0.4446451289,1.4097646137,-0.8901496462,0.1726976523,-0.4060652244,0.3348987416,-0.2237184009,-0.4451089991,-0.8438408141,0.1777498123,-0.1964771826,-0.9303592238,0.8665349909,-2.6661530051,-0.3363118169,1.4417741234,1.269739988,0.8737211625,-0.1706753876,-1.1896512775,2.0172065455,-0.7988758743,0.7606635831,0.031025622,0.7285811242,0.2668696656,-0.3026537439,0.9676722559,0.1559502936,-2.5436326241,-0.5038078285,0.1551824216,-1.5239544125,-0.5369803964,1.6169943616,1.1266371063,1.3677626197,-0.9929747462,-0.4163709263,-0.7214862757,-0.2107473562,0.6587886011,0.2281011796,1.5132073114,0.5502082594,-2.2656550897,-1.179825615,-0.8169633154,-0.7039373715,-0.0600316841,-1.0693925487,-1.0716726215,-0.4284734532,0.8214752707,-0.6442439284,0.7445237638,-0.6381842759,-0.0433293137,-0.7647473028,-0.8817678687,-1.1506511096,0.5180815693,-1.351164206,0.258131831,-0.0588213573,-0.5730373918,0.4838581032,0.3316050565,0.9034050274,0.8705637203,0.8742092713,-0.2860734433,0.5967275563,-0.4143132664,0.4475662328,0.257013379,-0.6352715037,-0.1329941597,0.9751322861,0.0326949213,0.2326465671,-1.1805856573,0.3773911842,0.7837677149,-1.3553707576,0.8561138725,0.4645847679,1.697984174,-0.7345573319,-0.0749865949,0.0873844328,-0.930551654,-0.974538824,-2.7689364388,-0.333325581,-0.5881999968,-0.036410801,-1.4754433273,0.8681208345,0.2512558092,0.3059334136,-0.8398474846,-0.531818342,-0.2358911452,-0.4318420582,-0.5902831575,-0.8031283477,1.4475616573,0.2548135642,0.1527783635,0.7804159487,0.5446053979,-0.6269016454,1.3409659171,-1.2145689892,-1.7747776072,0.9419712252,-1.0529315341,-0.854548899,1.4989881549,0.6976181452,0.8732537422,0.4071947013,1.4001516606,-0.5358713146,0.5735645449,-1.1452319628,0.8062571819,-0.256248635,1.5245639492,-0.8841247797,0.3116556343,-0.9637302991,-1.2163587673,1.1884205858,-0.8429211556,2.022648511,0.6736937273
   -0.0799647069,0.8091141197,0.2391764471,-0.1191632171,0.8618130927,0.189775529,-1.0583174133,-0.5761681632,-0.1499794826,-1.8824617091,0.5797832491,1.2092725601,-0.7367847005,2.4597394204,1.9076557548,-0.8749216674,-0.6699858354,0.8243667025,-0.4256542916,-0.3060283129,-2.4721355864,0.416755379,-0.771383641,-0.2332053407,-1.3059980359,-0.1806744416,-0.5688427499,-2.4304466216,-0.0525926327,-0.8577257525,0.606287918,-1.2350741759,-0.5897989057,0.0075387841,0.5008553828,-0.5776429154,1.2547614653,0.3085442864,-0.5815237957,0.8162890456,-0.0803785274,-0.8817185843,-0.3972007268,0.0987774267,0.136143779,0.0928351199,0.7173479162,-1.4068500026,-0.1344802614,-4.3356660547,0.9617552348,0.2983928551,-0.5809367632,1.3021901437,-0.8274290144,0.5011336931,-0.379354937,-0.4495107258,0.4539331727,0.1612806749,-0.8988744456,0.5140108911,1.0767542542,0.6564945725,-0.4709383686,-0.0427120162,0.4305842383,0.7009922859,0.0180809115,1.4780168635,0.4643652845,-1.053815029,-0.1091736505,-0.8145470685,0.7876670669,0.8904157732,0.3184698814,-0.2362095906,-0.2556694586,0.3263377834,-1.2896130221,-0.742905957,0.2388696598,0.0176742122,3.2682321764,-0.0996425808,0.9177925174,-0.9724053388,1.804537406,-0.4779361263,0.4321181516,1.3527035968,0.7911366353,0.1585904739,0.8504697563,-0.0572869454,-0.4021687382,0.9911837452,-0.4444639016,1.6210907591,1.4122385235,-0.9341318181,-0.7278959662,-1.0493729543,-1.4805123205,0.3421018711,-0.7222713244,-1.0968622315,-0.6824359029,-0.9428861297,-1.0149493039,1.0428350537,-0.1084284316,-1.3061235364,1.334116386,0.6566490083,-0.7188067515,-0.1873098861,1.8195477269,0.4500767087,0.3814067985,0.0529747688,-0.7960830093,-0.1003086513,0.1333742122,-0.2432771541,0.7108958956,-0.4790966481,-1.0467782499,1.0249670855,-0.0388286348,-0.5350135698,-0.4484612153,0.3658530512,0.1405113867,-0.3308322979,-0.4149885878,0.3007417997,0.6373537226,-0.8546930291,1.3250689885,-1.033217771,-1.0573331168,-0.3842150584,0.1792255596,0.6672511213,-0.762790777,0.8722837522,-0.8740594656,0.8251058597,-4.4728887378,0.8209166654,0.2139653221,-0.9076076634,-0.5348115987,-0.6973438358,1.3498930371,-0.7005280233,-0.5652500729,0.4102310247,0.3404653071,-0.5762719638,-0.0074497316,1.7267491156,-0.0103917515,0.1304915602,0.5835763432,-1.1457625508,0.1066668234,-0.8717634276,1.1988252704,0.4145343472,-2.4495157198,1.0016098491,-0.0247237355,-0.9029963896,-0.2026462895,-0.1630733096,0.2382623014,-1.0880024598,-0.097514589,-0.6210960888,-0.887656051,-0.3330006725,0.07511989,-0.0554011676,0.0726354973,0.3954653157,0.202057587,-0.5809329661,-0.6867424091,-0.6683406739,-0.5035076535,0.4630066588,-0.7482853938,0.0764696838,0.7472535305,-0.3740309117,-0.4313947061,-0.0539168041,1.0441112266,0.5387308645,0.5667648951,-0.8075691534,-0.5317826112,-0.3320504667,0.2693226853,0.8831922417,0.2362441621,-0.5711958591,-0.8680375487,-0.096797028,0.019300707,0.2315291502,-0.6385487655,0.8168604983,0.6223218559,0.0301698001,0.7864895415,0.985173158,-0.1690994706,-0.8932822528,-0.3120152417,-0.450740249,-0.9437290925,0.6427423301,-0.1537060147,1.0680413199,-0.6323059896,0.4649208093,0.4440714217,-0.6968222687,0.4036368614,0.0089909379,0.730627375,0.8153325989,0.6223872793,-0.8652844107,0.1642896765,0.1559925595,-0.7618026925,0.1711424818,0.1475657975,-0.8640385873,0.4317667066,0.4532570677,-0.5504477151,0.8880302499,0.6449410644,-0.2205655607,-0.1904293564,-0.6987219041,-1.1066275196,-0.9197525375,-0.4261574931,0.0085788616,-0.66215548,0.2762914945,0.1728882338,-0.0695662313,1.0084046196,0.8193452654,-1.2279766234,0.0268360322,0.5051248404,-0.3310055098,0.3184303246,-0.1728265517,0.0251069897,0.0982922272,0.8185327164,-0.5510063641,0.1110087404,0.424022544,0.3383747116,0.2405989115,-0.0671505692,-0.2948366176,0.18166358,-0.1793902268,-1.0269621192,-0.643408358,-0.9289576595,-0.7517808852,-0.8099859671,-0.206157922,-0.2574536755,-0.2179100497,0.804254639,-0.5516379594,-0.1070899311,0.7735313347,0.2152331043,0.3138014368,0.7920922812,0.8078573725,0.2178455519,0.0813917228,0.703712211,-1.6326606304,-0.3975926777,0.1164880309,-0.4344405136,-0.5496365557,-0.6775012184,-0.7536352315,-0.7610657293,-0.2801310741,-0.5933936831,0.0754888173,-0.1097840065,0.6340584489,-0.2594718516,-0.6682494193,0.3299807876,-0.8847370733,0.5543180268,-0.2824143603,0.9432464959,-0.4853736146,0.4190082649,-0.5234232381,-0.5731008828,0.3035244106,-0.1036996318,0.6586982483,0.572078083,0.2783103738,0.4910437523,-0.692855946,-0.122723825,0.9978080889,-0.536321419,-0.0216596994,-0.4519559343,-0.5744214139,-0.1636866531,0.7128971724,1.2412328567,-0.709009233,0.8885161082,0.9932345054,0.6077212751,0.6291816497,-0.6898556782,-0.3980524577,0.8972287089,0.0849416449,-0.0663135587,-0.5306362774,0.097106192,0.5870119386,-0.3481289565,-1.0703435901,-0.2130853448,-0.1393444235,-0.8533559154,-0.7609144959,-0.162537049,0.6817708232,0.3112883277,0.3273265121,0.0017511009,0.8380575067,-0.8639593286,0.4437970877,-0.7346191392,0.4542530097,-0.1432842347,-0.9302823267,0.5162104069,0.6497576578,0.811862475,0.7519436986,-0.3817436983,0.7047567832,0.1763574041,0.3459361727,0.4410648286,-0.3669813416,0.4848233377,0.2691637496,0.9728714474,0.4711953984,0.4452123059,-0.9087298325,-0.5803311264,-0.1088708542,0.1173157121,-0.243713286,0.1948012148,-0.2444549096,0.4623659339,0.0548299814,-0.7723887714,-0.515288754,-0.2813128271,-0.4866881628,0.2003513154,0.334500858,0.4253709064,0.3883851506,0.5699813803,0.7415250544,0.5627654208,0.7934754648,0.5741641778,0.2554865532,0.2005972224,0.968768651,0.0976879626,-0.1703195117,-0.7491007283,-0.0950416444,-0.0299164329,0.8815075452,-0.5738042798,-0.3350977037,-0.9627770617,0.973114676,0.6581265939,3.344247273,-0.2869400456,0.3195570132,-0.1792743127,1.2526583273,-0.2599790045,-0.2477330942,0.8294791286,0.3821131994,-0.4831588303,0.4375473788,0.3165363213,-0.881932436,0.9959534306,-0.0304872675,0.4094613535,0.830613429,0.4413069342,-0.8625690152,0.7438021909,0.6211754442,0.5761508387,0.3673489506,0.2112147135,0.1377770592,-0.0986430322,0.1687599261,0.6269010035,0.954310105,-0.0977952515,0.2100190045,0.1071174661,0.3818621944,0.2448461088,-0.6488812317,-0.9984298598,0.457836708,0.3904113004,0.5366774483,0.249816661,-0.0676341299,0.403733313,-0.1917952273,-0.8970950133,1.0918012603,-0.4687205527,-0.5763594018,-0.5456303779,-0.402052455,0.2438521484,-0.3150094061,0.706726725,-0.1330444254,-1.0292718344,-0.4069178525,0.2072376629,1.1514149099,-1.1403777652,-0.4191568854,0.2241682335,-1.1119803401,0.5781289988,0.8296015737,1.0864897037,-0.3700066625,0.6824123945,-0.4237553744,0.3497983212,-0.1901704913,0.4320432914,0.0440913522,-0.6551650287,-0.4507130095,-0.9468216704,-0.5906512556,0.6449145783,-2.001833724,-0.8246485289,0.2586657272,0.4719129324,0.9212143727,-0.342155353,1.0545876608,-0.1484895297,-1.0275445373,0.5036863369,-1.0075379412,-0.1406858895,-0.1586851593,0.9800758964,0.7743424856,0.3041932393,-1.239865867,-0.6962471502,0.1862042228,-0.664976283,0.9561346302,0.1345405354,-1.4645414363,-0.6009274602,1.0249987362,-0.7379742195,0.57263423,-1.5236789304,0.7817285673,0.7071014021,0.216547553,-1.0352327875,-0.8030684777,-0.271577591,0.7940581085,-0.0407644141,0.7632466729,0.1464337573,-0.1921350409,-0.7722824088,-0.3966218963,0.5143316089,0.5703561117,-0.9773178496,0.1480826938,-0.1185580948,0.951826875,-2.2302393311,-0.8787814328,-0.6082302437,-0.2794070706,-0.8939443098,-0.1251443129,-0.2013930428,0.666002623,-0.8400567861,0.8654446655,0.2699482053,1.3842452462,0.9322109906,-0.274395947,0.3273905346,-0.0289817229,-0.3561873665,-1.4432046471,0.480123778,1.0266013327,-0.4358580923,-0.5657506026,1.0083094501,-0.4350890415,0.9885898941,0.284571219,0.5908098633,-1.3466367592,-0.7845373199,-0.8987432175,0.2343573313,1.0073888101,0.6246358597,0.1073289508,-0.048587023,0.0898415456,0.3215094621,-0.013408936,-0.3220092205,2.0765406478,-0.2576890078,-0.8627744321,0.5294302807,-0.5257528686,-0.8752475052,-0.4780513362,-0.0233330972,0.3439915279,-0.5392412996,-0.7280997544,0.2378598053,-0.0675600292,0.1363297016,1.602106794,0.638018689,0.5114112791,0.5683550278,-0.5991547406,-1.913304217,0.3274123448,0.4325088788,0.3033207008,-0.8548311836,0.4495400066,-0.891280053,-1.4861771501,1.3276896555,0.3309496006,-0.5640390812,0.6468416774,0.1280483275,-0.1788328135,0.0265973455,-0.224724141,0.4375579814,0.3410663166,-0.2422624958,0.6457102105,1.0089079859,0.0069372075,0.7797355452,-1.4814080515,0.4875395333,0.8081830307,0.7807097793,0.1956449982,0.1366505488,-0.4344323489,0.271776684,-0.5719219768,0.0661215289,0.6337038172,0.9122571335,-0.379081155,-0.5083217033,0.7414754947,1.3518201107,-0.8652482791,0.39446208,0.2166581856,-0.3460163717,-1.1945910796,-0.7048775393,0.9664069866,1.0413363214,1.0318309293,-1.2569338122,0.567848211,1.2689202896,-1.0218082042,0.0495198613,0.5951769646,0.580300805,-0.8048630581,-0.0200331792,-0.865557735,0.9435865842,-0.6860882151,-1.6997653434,0.3481290642,-0.6564300293,-0.4609357188,-0.8780835934,1.2727688041,-0.3469332824,0.0163297038,-0.6933220846,-0.5339031955,0.079675597,-0.8385814498,0.6737274317,0.3910233868,-0.3981176798,0.2943354899,0.7118222415,-0.6826335678,-0.0536598284,-0.8402925497,-0.5734019838,-0.7147480788,-0.6850130708,0.2973401818,0.2893404182,0.9638727039,-0.211027075,-1.5155178813,-0.1693729826,-0.9546729937,-0.5463577476,0.3617092621,0.425600831,-0.7877436213,1.3426271024,-0.1299203259,-0.4237221248,0.3896006993,-0.2121546743,-0.040393775,-0.5317470556,-0.8375122484,-0.2321273459,-0.1486898333,0.6909007717,-0.6656685218,-0.5421293268,-0.4480105081,-0.654020008,0.7338282042,0.0055206182,-0.4423149692,1.0949861657,-0.3512642745,-0.6439150982,-0.5033718661,-1.215478386,-0.6506568789,-0.6211698508,-0.0581526569,-0.4083848577,1.1505343247,-0.7215082044,1.0137292821,-0.6998909806,0.4163531339,0.2102098823,-0.0635118147,-1.6394196225,-1.9457326973,-1.0999466255,0.922652031,0.3231382259,2.4320602944,-1.4147119328,0.019584801,0.9489932461,0.101655665,0.6320072052,0.7964018726,-0.6187449489,-0.3791443801,-3.2735537819,-0.62158732,0.2940959672,0.1918536808,0.0808839199,0.0829447707,-0.0730994799,-0.7678326319,0.882289509,-0.3620817497,-0.277077873,0.4813595364,-1.3233114801,1.1060000816,0.1553380767,0.2565489593,-0.7447651862,0.5951313826,0.3305080534,0.8187204958,0.963377502,-0.9227017033,0.1296827363,-0.5285696716,0.6153502416,0.6223229713,-0.1616998197,0.6276362962,0.7846274162,0.0726737226,-0.3718612369,-0.6358197386,0.571558891,0.7175861914,-0.7328816846,0.7430642624,-0.2988172551,1.2481607244,0.3655747281,0.8453007636,-1.0336584888,0.3160584547,-0.8887574654,-0.2368951228,-0.0101173212,0.2002636919,-0.1021698475,-2.7433760666,-0.2881687309,0.3516793335,-0.9087534818,1.3462133217,-0.8354814235,-0.981205034,-0.2911744534,-0.685762696,0.1556372682,1.2010878522,-1.2055077513,-0.9780157636,0.6040946217,-1.7349691368,1.1217967435,-0.1327459443,-1.0524824397,1.0087709781,-1.1953199019,-1.3111746962,0.5954837288,0.9290740957,0.8892007878,0.7233395666,-0.1982496227,-1.1728144633,0.1535838269,-0.4356903514,0.4182784164,0.2069721638,1.5455305829,-0.0507793341,0.1064545251,1.2557344145,1.5295126674,0.2081573143,-1.4237944578,-0.2229799313,-1.3500730568,1.4721718848,-0.5727603034,-0.8828799548,0.1352129833,-1.1395734524,0.6540505011,0.0349560838,-0.5123926724,-0.3875624771,-0.939577007,-0.5661477665,-0.8351405489,0.9809088631,0.7815909193,-0.1742676306,-2.4114162237,0.1768587029,-1.7083057479,-0.0312498304,-0.4170994897,-1.570057075,3.4822348829,0.0147806654,0.0892433358,-0.7911520328,0.8973017088,1.2854652101,-0.0028880168,-1.3264780749,-0.6116007573,0.0179170287,0.9157239946,0.4436320362,0.4353157189,1.0929984609,0.6678492062,-1.3138942885,-1.4344869114,1.0431611211,-0.1804467442,0.5114950285,0.378358508,1.3458368359,-1.0709974719,-0.0039826421,0.9710240906,0.267898633,-0.0054736638,-1.1256391225,0.2200139549,0.9596605379,-0.3105930816,-2.5217120273,-0.0768614275,0.6148811428,-0.7522397387,0.0499742226,-0.4427522913,0.3307990968,0.4074556362,0.5503895652,0.6527198935,0.4079033,0.7948328583,-0.7510660581,0.7090656353,-0.772112218,0.0018461679,0.2641024405,0.8069072907,0.8298534274,-0.2204211808,0.8779272883,-0.9751259163,-0.8593023132,-1.169679901,0.7125625273,-0.4993261655,-0.940595604,-0.4068954108,0.8634832846,0.3749226137,0.2912688936,-0.9914519929,0.7161577015,-0.5281880476,1.4381035296,-0.3754071673,0.6184030781,0.9938213353,-0.8509899735,0.7269314632,0.7813069936,-0.3953283477,-0.7049233135,0.9815888759,0.0166594261,-0.7672820576,-0.6121610815,0.8032699608,-0.233938572,0.9335307173,-0.66972655,-0.4131681896,0.9496429037,-3.5163485803,-0.4379539186,0.9112501375,0.1561718047,-0.3478783909,-8.0334398866,0.8184999632,-0.30221485,-0.9703698322,0.0844474309,0.4840238172,0.3398406883,-0.8472463871,-0.5930443586,-0.9265820109,-0.7136468117,0.445272774,0.9570204649,0.4383993702,0.5389169687,0.1379876329,-0.1316064946,0.5375101622,0.1279986781,-0.2317815171,-0.3945918938,0.8314169224,0.1568271337,0.3454170932,0.2217284388,-0.3139684462,-0.6013651243,-0.7437568691,0.8599691361,0.2857720329,-0.2562523177,-0.47585894,-0.6878146718,-2.5604110476,-0.60720182,-0.735837978,0.3842583291,0.3844549786,0.4189414833,0.8471449852,0.3829243147,-1.1071982843,0.4397439011,0.3311849911,0.8378990241,-0.067065207,-1.1328930728,-0.8801741029,-0.9638190262,0.4359531574,0.247989859,1.1355006563,-0.0265385321,-0.4432113809,0.8839160708,-1.1366977562,1.263432765,-0.3982005815,0.4940354563,0.7971636494,4.2404211131,-0.0413021777,0.7825755189,-0.8576514491,0.3878698142,0.4859293813,-1.1635766458,0.5715318385,-0.2549080096,0.5445362323,1.3323393297,-1.2497225452,-1.9963829868,-0.500151084,1.6026937442,-1.1972785789,0.1985228985,-4.0447877092,-1.2051034292,0.0138511122,-0.3696618591,0.5075834096,-0.3508535845,0.747175277,0.4465742468,-0.4084853771,0.80550437,-0.1585896427,-0.5068551379,-0.7731084898,0.8367656966,-0.110950496,0.5732826006,-1.2628921093,0.2172471145,-0.8199921878,0.6390863287,1.1451813517,0.6789886055,-0.9203885742,-1.154810824,-1.100957085,1.1894511357,-0.4156326102,0.3552681572,0.5267597059,0.4697931185,-1.3757785752,0.5357138391,-0.2666778176,-1.2320605659,0.9173407093,-1.0569392407,-0.6688369511,0.5238180896,-0.419262622,-0.0015597468,0.803983463,0.823947838,-0.5418791308,-0.02329875,0.1621566953,-0.5134175532,-0.2697469372,-0.3739558377,0.008928608,1.3402356952,0.0071550222,-1.4488629442,-1.3916387645,-0.8331220199,0.998094065,0.4118634369,1.4272725505,0.4787496106,-0.4777536332,1.2648900433,-0.2645439202,-0.6740563147,0.9890281198,0.8043878013,0.3198738147,0.4329444521,-0.7991754157,0.1914286141,-0.5024063178,-0.5111182723,0.2815065569,-1.0064498548,0.2502492828,0.8298264431,0.4595537356,0.6440328188,-0.6472700679,-0.2526588328,-0.1365466076,-0.5679921628,1.1603303025,-0.5733036377,0.0032695798,0.0636190792,-0.2640364663,0.236010209,0.7605331052,0.1098319853,-0.0173491626,-0.3069418502,0.6159803399,-0.3587967627,0.2811432286,-1.1025268227,-0.512225137,-0.055695354,0.7679634132,-0.2452635684,-0.2429069047,-0.450991241,0.0571490443,0.3322482189,-0.2084469345,0.4490731664,0.6630821051,-0.8359890218,0.6633926056,-0.3724656097,-0.0169759673,0.5439596471,0.7207692657,0.099281447,-1.0989561853,1.0145701002,-0.3220757235,1.2264690891,-0.641310164,0.1747444717,-0.3328183958,-0.5995967718,-0.3668030019,-0.6799960436,0.8984487528,0.7686421346,0.1742171013,0.8977612745,0.3853931034,-0.3219219936,-0.32268162,0.5454830328,0.0444844549,-0.3349162045,-0.4892014229,-0.0698409393,0.7500144531,-0.1719809907,1.1896233749,0.0010357705,0.4185281275,0.3753807816,0.2620371485,0.0906954835,-0.0472636387,-0.2920959924,-0.0362095008,0.9366230898,-1.078052439,0.143378251,0.5480250854,0.1203558479,0.3286196337,0.9597419223,-0.5512601262,0.8118205788,0.5003281885,-0.9344608745,0.6209728916,-0.4941191536,0.5737496677,0.6142838162,0.9851354569,-0.2973153497,-1.2856662565,-0.154954353,0.3788685323,-0.0207561722,0.772267275,-1.6266071375,-0.3513830283,-0.2522169299,-0.6768936618,-0.4841543382,0.0692485912,0.5037427269,-0.2874765184,-0.1409749044,-0.3313812261,-0.7149349717,-0.8523797435,0.4124801237,0.5421251929,0.3939267593,0.711768819,-0.0775147516,0.8425902863,0.3609694791,0.5729372132,-0.6781965219,0.3477053233,-0.7257142701,-0.0584974646,-0.8117590305,1.7550932659,-0.8801572191,-1.0177690457,0.7807596844,-1.5235560024,-0.2533772068,-0.2642146468,0.7615035427,0.4608886809,1.3117910807,-0.8393925322,0.0335602252,-0.8206564768,-0.524133514,-0.0274535505,-0.991428688,-0.7336918749,-0.4545544584,1.4565282092,0.7223125164,-0.1934465321,-0.4351576533,2.2017388619,0.6376524753,-1.7413416276,-1.2705799352,-0.5302472757,-0.5567737429,1.6902521559,-0.9220503035,-0.9705848139,-0.7979050068,0.150356561,-0.2279459352,-0.9824338468,-0.2728989519,1.4141909614,0.517216555,-0.4045753445,-0.6882460362,0.3117434437,-1.6784367036,0.1185276478,0.1169665314,-0.5474295334,-0.7670311331,-1.1955814992,0.8387989237,0.1142133797,0.4655624334,1.7453453659,0.4284936606,0.8676670747,-0.45319645,-0.6195740741,0.9582382778,-0.2320033789,0.4835791269,-0.6031958554,-0.4258395336,0.8537716348,0.1195975187,-0.5470015871,0.2638556408,-0.5716823853,1.5357059549,0.6647059007,-0.4264425944,-1.2630484192,-0.3456379784,-0.9099745999,0.5183019796,0.7256796505,-0.8442127258,1.1057544942,0.4309763609,0.4271883479,-0.8906018451,0.098552904,0.5808549163,0.1691264601,2.0395654855,0.4956298337,0.7033657109,-0.5715042164,-0.2702062301,1.9708196135,-0.7826491328,0.8423057338,-0.2760460094,0.9253101017,-0.4477206905,1.3692913565,0.5354202224,0.3173576672,0.0712187657,-0.4340193123,-0.1916972616,-2.0397440529,-0.3390592643,-0.0109721804,-0.0826809487,0.6918056905,0.2888109948,-0.509726428,-0.7707198935,-1.1270618572,0.1332420225,0.5519448292,-0.5873679669,1.317578982,-0.2888475524,-0.5866616661,-0.2787451852,-0.2471507043,-0.0549316363,-0.357451661,-1.6859005765,-0.3186693619,-0.2718457261,-0.3235717148,0.4967448186,0.5508522712,0.709261242,1.0547756875,-0.9616695385,-1.0849746402,-0.4632100983,1.5947227167,1.0640894934,-1.2879672969,0.3271402695,0.3549459822,0.3170050436,0.7130984631,-0.7903615137,-0.4186179347,-0.3812150088,-0.3599374048,-0.1485149318,-1.3475553721,-0.401129047,-0.2300457698,0.4743535611,1.201629713,0.6150350148,0.3196314771,-0.7247764229,0.5569040207,1.1857008599,0.374080443,0.6293895534,-0.8650768925,-0.2390020692,0.5684049758,1.1157840837,-0.1069765675,-1.003206826,-0.2303348165,-0.0714759775,0.0789996137,0.5125571942,-0.8556034873,-0.0366125509,-0.1856596827,-3.5733551501,-0.0114493859,0.2405321358,0.7704263987,-0.1446685602,0.314600531,-0.395139939,0.4912997541,-0.2305620955,-0.2263948472,1.1664219456,0.4313632118,-0.6698492285,0.4855073352,0.3492756985,2.9156712005,0.907644901,1.3335622207,-0.8368608946,-0.6954768298,-0.1287956979,-0.3348560816,1.2691031372,-0.0753771364,0.6895205408,0.4180441641,-0.6213690698,-0.170457856,0.0188233487,0.7560338887,-0.3099089259,-0.0634012038,-0.1688050319,0.3217589651,-1.2031182501,-0.9850413575,0.8438967754,2.0312406594,0.1975005941,-0.9060342762,0.5938210943,-0.8155350261,-1.0576503005,-1.1519685104,0.3159400686,0.1740951011,0.3362546384,-0.567033999,-0.5499071756,0.2784592409,0.2171163141,0.2088505562,-0.5792718295,-0.6077318815,0.9930732585,-0.1759564805,0.2435088547,1.3399074478,1.3388901389,0.7407175724,1.1145262982,-0.835222376,-1.0300731826,-1.1960915592,-0.2852094618,0.3291142398,-0.9969772827,0.7007965302,0.4707809808,-0.6778407738,1.366021936,0.4757631418,0.5235579344,-0.15790858,-1.1879457978,-0.2430577846,-2.8836756777,-0.7101176145,-0.4315259937,-0.4549731453,1.2529133088,-0.1615405952,1.0788869822,0.5781168209,-0.0743643756,0.1631709193,1.222420839,0.614115066,0.3312630053,0.3834688624,0.4965522363,0.1536304491,-0.8176469291,0.015517209,0.207623122,-2.279669598,0.7480371178,-0.4254149981,-0.9523152947,-0.6744207969,1.0493161435,-0.3424556654,0.0059066245,-0.1342695809,2.7209586463,-1.1004699513,-0.5185192318,-0.6951773088,-0.1215700178,0.1854123974,-0.83607678,0.6943766845,2.4512371895,-0.8714700337,-5.666552817,0.7192780122,-1.0858435048,0.0664898514,0.4106854529,0.9343477642,0.9469399835,-0.7581818184,0.3482309807,0.5105535274,-0.7208590574,0.1091138507,0.4510127562,0.9089226833,0.1781100314,-0.8405382448,1.0211754517,-0.2775700212,-1.1137310462,-0.1393120921,0.2202662478,-0.4377540711,0.8462647236,-0.8734897707,3.4063435217,-0.7838491216,-0.3969419994,-0.9898550053,0.3301580853,0.4452703327,4.27133756,-0.8493376503,0.468715455,0.2735397578,-0.0020509878,0.2674597656,0.3088410443,-0.323437765,0.4650837115,-0.4865481817,-1.6848841992,0.8134162604,-0.4901131679,0.725948293,0.85413596,-1.4304210306,1.1795402868,0.45539242,0.5389121228,-0.6270866738,0.6482146966,-0.414737581,-0.2091279545,-0.0954807438,0.8448081868,-0.4530266144,0.2909900053,-0.2878850165,0.7741886796,0.9889133371,0.9364441399,-0.374767011,0.5438148195,0.2932886863,-1.1606881866,-0.3153731964,-0.2411431744,-0.2988068126,0.9826865683,-0.2449601434,0.3809543339,0.9191538305,-0.445363052,-0.5790944051,-0.1590003555,-0.1892177142,0.4668736832,0.1288940004,0.2316684674,-0.3330862376,0.6212584477,0.3548976955,-0.1349090749,-0.5510929266,-0.0964869857,0.8291023096,-0.2746197097,-0.5996858062,-0.0600903808,-0.7939297034,-1.0033608186,-0.1685023117,-0.6202656594,0.6244301748,0.693917962,0.4546499058,1.410953172,0.8476897027,0.1881840575,0.8823310397,1.0395436421,-0.878483799,0.9648606649,0.7649503544,1.1207433856,-0.3635493092,1.3993798947,0.8843915156,-0.3478245387,1.0957773709,0.1422795751,0.9662606002,-0.556332456,0.874919404,0.8246848031,0.1379271762,0.6624128516,2.354199583,0.5720676705,0.4462297104,0.4858108421,0.4664842934,0.6563801476,0.7924975014,1.1050966937,-0.5266619032,0.7235131273,-0.228301602,-0.2168887043,-0.2435126587,-1.8423387664,0.6921282341,-1.052665184,0.2092038114,0.363963974,0.1395237686,0.422309936,1.171221557,-1.4813374843,0.1768075806,3.0090095344,0.731747085,-0.9546492729,0.7269064715,0.5214860852,-0.0476664374,-0.8147640715,-0.7006816724,0.0391279047,-0.2679293154,0.1466488581,0.1083747075,0.6875038454,-0.3615692702,1.4132794257,-0.5426500059,0.2830286086,0.7843801622,-1.3369716862,0.462667871,0.8423365151,0.1000769783,0.9772267203,-0.7691819105,0.2560169403,0.089047032,0.3107344163,0.9041966031,-2.0276853297,-0.0164216299,-0.5785277431,-0.763258265,1.1501708879,0.710144999,-0.2360772826,0.0990097258,-0.8953551636,-0.030573993,0.2251085263,-0.2419323035,-0.4811790923,-0.8724863628,0.1757232338,-0.0104229505,-0.8878702183,-0.3812303498,-0.2824091084,1.0225608327,0.3570126348,0.9430682324,0.0498416339,-0.4495402034,0.2601987439,1.1161655775,0.3909603433,0.6677603108,0.519634355,-0.4578819748,-0.0529910247,-0.7638201361,0.6169787037,-0.315326295,-0.8943832263,0.6334126548,0.4703998044,0.5960513754,1.2348112065,0.4389287999,0.0501342969,0.4950396962,-0.1730222551,-0.9298278191,-0.527680396,-0.2084149607,0.5681447524,1.7179034375,0.4541968857,-0.2981624275,-0.2097818934,1.0241184433,0.1729089672,-0.8598981504,-0.73136325,-1.0705924861,-0.6883730698,0.2453906742,0.7630790581,1.1137117045,0.7222797248,-0.1461034739,-1.0439265047,0.7090386645,-0.4696454025,0.2152929842,-0.0497019356,1.1065653232,-0.3543981397,0.5406551249,-0.6477654316,-1.0415466865,0.6157386655,-2.3644973196,-0.9392612358,0.4883116232,1.0102769232,0.073015238,-0.0117793754,0.0830783782,0.8938827828,1.0896467473,-1.8087576244,-0.8489475496,-0.8558188035,-0.2487745327,0.3382672589,-2.0533141608,-0.0418639306,0.5904633946,0.8702801943,0.0312178143,0.7826038153,1.0478497952,-0.2495561912,-0.777111508,0.5146163637,0.5687401402,0.2947903782,-0.1718520097,0.4280305432,0.9491875602,0.1760259922,-3.0509164179,-0.6951258042,1.4042104432,0.6349398883,0.1693969449,-0.4818184124,-0.8934309124,-0.1163735367,0.8703037856,0.6240263878,0.7912092489,0.476524425,-0.148915804,0.5452159175,-0.2506912354,0.4257698186,-0.6503634588,0.6538351293,1.1611069185,-0.5992664213,0.4989659404,-0.5910453829,-0.4039076914,0.5487854735,-0.3271939303,0.6295848678,-0.2479335744,-0.4425031425,0.0006100663,-0.0006814349,-0.9468935983,1.0273551786,0.227120299,1.7176396476,-1.1238409365,-1.1757821862,-0.5708947744,-0.0002386634,-0.371169287,0.3870888128,0.8768486003,-0.9155321385,-0.2550691177,0.7158016542,-0.6324099798,1.1712642291,-1.7228202852,1.7844605922,-0.0178430179,-0.3685720475,-0.6506905555,0.4032282409,-1.0108004923,0.3322539244,1.3500812692,-1.0010436251,3.0438943521,0.2927381454,-0.938300918,0.3004873346,-0.3817842017,-0.554431551,0.3631303885,1.0190935879,-0.8155357569,-1.7928608459,-0.3481115829,-0.2419398221,0.5921198482,1.8654875291,-0.7178696738,0.652318071,-0.5217295765,0.4860590518,-0.6145422399,3.3028498045,1.1574194277,0.2114742449,-0.8013005883,-0.6157378396,-1.7102194733,0.6771179482,0.5362932372,-0.7736580131,-0.5308271352,-1.3891903762,0.5689816659,0.9164657659,0.1478651155,-1.0784241842,-1.0892828549,-0.2102911725,-0.6744996569,-1.6589257923,0.6041392975,0.6295878232,0.5935789786,0.6456558666,-1.3058359724,-0.2067325411,-0.4572824298,-0.393325478,0.3102991945,1.1808283398,0.740392289,-1.1817582959,0.4914993546,-0.579122073,1.2704162468,-0.6568776161,-0.6765222975,-0.4118321876,0.4267077559,0.8228518388,-0.4927801705,-0.2599976531,0.0810352922,-1.122707737,-2.1301294851,-0.3988919313,0.7960403893,-0.4288902105,0.6701709094,0.9483926494,-0.7124311777,-0.2254467014,2.7102108902,2.1717457944,1.0421316773,-0.6993054058,0.0128414589,-0.6699435376,0.2754056038,-0.4926560618,-1.098518801,-0.8256234941,-0.6487707298,0.7184977375,0.3918264501,1.2596555115,-0.0741267025,-0.5570587343,-0.2652094378,0.0087832185,0.6264403074,0.2983102984,0.9519439576,1.0525615389,-0.0121058808,1.0404840726,-0.6836300147,-0.5666864643,-0.7267554011,-0.0970112326,0.2170211435,0.6616756916,0.1051574052,0.4120588877,0.9538974076,0.5490875728,-0.5954747313,-0.6734033419,0.0827497356,-3.7308624179,0.1187350111,0.7427211622,0.4455306137,-0.5466905767,0.1590185366,0.1135407147,-0.3731825101,-0.8834795199,0.7036189371,-3.325612515,0.5760119962,0.4261306554,-0.4820738966,-0.0905949998,-0.6907368951,0.4589476471,0.0854372707,-0.0881136038,-0.2136186091,-3.2508992607,0.8320668786,0.633963594,-1.393283682,-0.6385123956,0.0711618349,-1.2451212992,0.5471974246,0.2085065281,0.381427563,0.3903701886,-1.3846746827,-0.2860444634,0.7800513442,-1.076882047,-0.8450223336,0.202921405,0.8047198128,-0.1057515935,0.6292457812,-0.6826794255,-0.3453131618,0.1362113041,-0.1820479496,0.1157827702,0.7142362889,0.5214719808,-0.844361674,-0.4389329874,-0.1698520831,0.566469289,3.4911345429,-0.6459432908,1.3611114825,0.0684436817,-0.4978358409,-0.160233652,0.1988681581,0.5539503363,0.6083151177,-0.0833597434,0.7568759672,-0.9168411275,0.2341341444,0.0138744488,-0.2429305353,0.3094051279,-0.610304784,-0.4068535637,-1.720351229,1.0215954642,-0.1755037476,-0.3838844092,-1.2809524135,-0.576451733,-0.0963863123,0.5658454776,-0.6407050452,0.9886173012,0.018614486,-5.1508535929,-0.316509929,0.2997823547,-0.4161402678,0.5539121162,-0.5499264897,-0.0108169507,0.4501157023,1.0654330829,-0.9866040728,0.7280538087,0.4368673851,0.2655689978,-0.3845870227,-0.9872542901,-0.705413638,1.1912850831,-0.2813982398,0.7655204489,0.5240148897,0.6639591218,0.1615073238,0.2586908315,-0.3507090512,-0.3730079809,-0.8269145144,-0.8243860433,0.5835197521,0.5641587,-0.7869751187,-0.4481809153,0.814172313,0.2252829787,0.4619138606,-0.9794488796,0.9520517038,-0.4937774309,-0.9711857243,-0.2854911347,-1.3063071498,0.2080337205,-0.5043685735,-0.1120823766,0.0070381058,-0.4166676044
   0.6064430136,-0.6194506978,-0.9017715283,-0.8041039748,-1.0175306522,-0.9858867572,-0.7618022074,0.2501622466,0.4945595052,1.0122222488,0.0389264331,0.2385895423,0.5518503932,0.4251652764,-0.6078384754,-0.183792074,-0.4860134807,0.7189985817,-0.6724065464,-0.1804617648,0.7261178451,-1.4529568207,0.5926954172,-1.5938799767,-0.436014605,0.7342038127,0.7755689735,1.4751962225,0.7226692553,1.1130870235,0.6988483997,-0.5985229283,-0.5872562385,0.1373927439,1.3481209922,1.242979342,0.0825869726,0.5697974071,0.2053989414,-0.2172356353,0.6954398903,3.0385020021,-0.0094657832,-0.7716057197,1.2475196896,-0.3197228025,0.037363994,-1.1821930014,-0.2912528917,0.0378687723,-0.3079824621,0.7528624076,0.5145896126,0.3297945439,-0.1625578594,1.1330196084,0.0549153914,-0.5344113831,0.6784317325,-0.5122588945,-0.3682366342,0.8229221144,-1.2537900544,0.9858046411,0.8783830609,-0.5130454406,-0.4454628668,-0.603063446,0.0021686309,-1.5502515509,-0.4790571327,0.6989960011,0.3878435341,-0.6507579576,0.9857860219,-1.0240161277,-1.0842951314,-0.5165685472,0.0715812389,-0.5879475468,1.2786968598,-0.5491191612,0.1620139615,-0.3191761235,0.0783016292,1.6512516584,0.4232462857,0.9055115185,-0.3717369668,2.6340665428,0.7977799901,0.0501814377,0.4251079058,6.8211114221,2.0192215374,-0.0331951425,0.8871736594,-0.7141075972,0.0513845581,0.8838981698,-0.5796191782,-0.3229041941,-0.0712203093,-0.2346700898,0.1976229864,-0.5999474664,1.0231253365,-0.4006840745,-0.5222514207,-1.2049692808,1.2736569581,-0.1813888947,0.1977055981,0.3875609478,0.5418959643,-1.1796876851,-0.3558462194,0.2790079327,0.9863519248,0.8729198301,1.9497060054,0.1291625557,-0.4443984231,0.5488066778,-0.9171532117,0.4592509172,-0.5011701715,0.6142095493,0.5329282274,0.5969607693,-0.2738142585,-0.0174053085,-0.1058045425,-0.2014862071,0.4753066631,0.442145654,-0.9690627351,0.0511727128,0.7435796184,0.0865457559,1.082533091,-2.0572300349,1.7369233847,1.5704191668,0.8267700033,0.120640928,0.8938476393,-0.2628070772,-2.752653053,0.8030277075,-0.360691445,1.7075897528,-0.7642539939,0.6692936017,1.0857141809,0.5835850533,-0.1023580436,0.862792059,-2.8214960876,-1.0054412232,-0.0893871124,3.0495374535,-0.9778371977,2.1466737641,0.7625795522,-0.4564724654,-4.3195389453,4.9792100196,1.066958013,-1.4277909157,-0.3486962996,-0.0754348897,0.2686168322,0.7242790772,-0.1476364488,3.1372367098,0.1822694038,0.1314806604,-0.5421168171,2.1085140407,0.3889872812,0.7990087822,-0.7384062968,0.6443600924,-0.2488176602,-0.9819786141,-0.3462907095,-0.0140614784,1.4888018436,0.14106022,0.4690506433,-0.3141805247,-0.072414327,-1.0902228208,0.6006969661,0.4223008294,-0.9361784008,-1.2380137473,-2.559794348,0.1150684023,0.3056780876,0.4710580243,-0.8199657942,-0.3659250897,0.4401106326,0.7695421756,-0.1701878253,1.3223107107,0.8085238604,-0.3139640657,-1.0043007234,-0.2336994273,-0.7388140418,-1.4369497553,0.3889614731,1.0703372413,-0.785768738,0.6758639952,0.5685130489,0.461946561,1.071661625,-1.8539399454,0.8703370107,-1.1086694704,0.3582560267,0.7041573462,0.0522170765,0.2200307816,0.886986386,1.4428185996,0.5423159031,0.4581751068,0.3857865296,-0.7299026545,-2.4068126468,0.7644906354,-0.2222798741,0.7389866925,0.1063649787,0.7261336619,0.3755782724,0.4708905486,0.7747639377,-5.6895141664,0.9991262441,-2.9437961457,0.5531838369,0.4636901928,-0.0342371518,-1.0574011519,0.8104383067,-1.6464237562,0.9694566714,-0.3902770833,-0.6104332848,-0.7031148659,-0.3602696994,-0.2195583314,0.9007958068,-0.2971126773,0.4785242299,0.5072508321,0.5047803008,0.8082128699,-0.3683097075,0.6064155632,0.5866072396,0.5051240354,-0.8223300915,0.0495380027,-1.0289519169,-0.55556173,0.473509303,1.3205628385,-0.6658878674,0.1281325244,0.7922932841,0.5545695885,-0.6770354047,-1.2497685067,0.685931766,0.9195673952,0.1960286007,-0.7131266058,0.0945757232,0.5221961575,0.6700810869,-0.1859574865,-0.1529770042,-0.5170844959,-0.1642005737,0.6720082167,-0.7053415584,-0.1416766956,-0.5665764926,-1.0432517266,0.1219618514,-1.5720018974,-0.0197779888,-0.2539670789,-0.1207523892,-0.7381977826,0.5983921446,-0.9393567348,-0.0072446547,0.5942321917,0.3319333762,-0.3803974324,1.5596668865,0.1317412136,0.2088830521,-0.3741374212,-0.850771431,-8.4437203156,-0.9190430447,0.1805997461,-0.0637887215,0.0344851733,-0.8970970647,-0.1273063384,-0.5311159518,0.4759315524,-9.3013574702,0.8185590977,0.2435375748,-0.9229045371,-0.5060313187,0.9359858116,0.093645219,0.0102036336,-0.0794223261,0.9935697486,1.5691859262,1.2103737324,0.0963032649,0.4203752806,0.9877752551,1.4471381275,-1.6346325767,-0.1076727752,0.5877383413,-0.6651053446,-1.0989169069,-0.7251295077,-0.3047831104,0.4731600392,-0.9335208709,-0.7465557427,0.8235478766,-0.9636371062,-0.6656023151,-0.4994040894,-0.3902552361,0.3707246871,-0.428949193,0.6949027203,-0.05771833,-0.9940902131,-0.9508963169,-1.7886132896,0.3257938719,0.4201110075,0.7494377998,0.3541312684,-0.0753682669,-0.5544164153,0.8385275333,-0.8842444437,-0.9473036116,-0.3090535458,0.8874393571,0.1639514262,-0.7052367539,-0.6125993023,-0.4916485977,-0.253705017,-0.5905003245,-0.1829181263,0.4861358866,0.3936592183,0.3923059944,0.8941855087,0.0956547592,0.6169604851,-0.9213745706,-0.7007280943,0.0405587744,-0.76730046,-0.1866721456,-0.6135393736,0.5298332468,0.3867830396,0.4904532289,0.2613311943,0.1901776469,-0.6006914617,-0.1049811489,-0.5819253703,-1.7010130081,-0.525992906,-0.9199892337,-2.9073714957,-0.0252563588,-0.5744204536,0.1565202339,0.3229714255,-0.2818008268,0.3114225845,-0.7859491875,-0.7665774867,0.4807833953,0.2253199019,0.1968340566,1.007462166,-1.7446008526,-0.527090391,0.7911054595,0.1471574063,1.0006837965,0.3998436999,-0.3845806647,0.1312428098,1.5691053857,-0.1394101766,1.0940770298,0.9628745739,0.7256155113,-0.823764385,-0.1486167807,0.8017919926,0.9181575895,0.3074079242,-0.1365311924,0.3779216698,0.3659493393,-0.5313327729,-0.5531513629,3.3866532176,-0.270562488,7.3418133689,0.5712998454,1.0102751484,-1.4217232951,1.5113323293,3.0734468283,0.0767964932,-0.0239218143,0.4696011476,0.1174501952,1.1069388892,-0.5008192881,0.4598161096,0.3264939384,-0.7047963203,0.9685718114,3.2723777621,0.0927498555,0.5263290772,-0.3532132256,0.1138738611,-0.8949716273,-0.0794721899,-0.5516052274,0.7246937956,0.9210147104,0.0265354922,-0.7567917535,-0.3391341463,0.0376933256,0.1382543496,0.7093167857,0.1356502099,-1.6297736472,-2.5578006227,1.0757903165,-0.3968604583,0.7337437757,0.5173844818,0.2909146147,-0.3997966,-0.171862854,0.957226945,1.0528845906,-0.7024104877,0.019861337,0.7478358942,-1.0654895286,0.8643744489,-0.7135520535,1.1888509174,0.4822152355,-0.1652145841,-0.8678151593,-0.8656345378,-0.4051687069,-0.2960564094,-1.1980723894,-0.746184753,0.0276264441,-0.8692965231,0.0854327167,-0.8269846588,-0.4192623969,-0.2860115767,-0.1923382201,1.8062513594,-0.4328745162,0.013415609,1.924252473,-0.2662967542,-0.5793870277,0.0150535107,-0.1946994869,0.748595347,-0.9841321309,-0.0513510557,-1.0074188816,1.6141755854,1.1003577747,0.254850616,4.0452436241,0.2602029785,0.2140806939,0.6722123876,-0.2136293248,0.1513697528,-0.8849939761,0.9924109712,-0.8143067741,0.8453067918,0.2425371133,0.1767888818,-1.0163042725,-0.1893098036,0.8474666219,1.62810125,-1.2966971534,-1.3998929226,-0.0415352847,-0.350249235,-0.7306234776,-0.1548245689,1.2182021506,0.0358801743,0.0772462371,-0.5575446307,0.7427407427,0.8177870264,0.9272535363,0.923359657,0.5432371211,-1.082525653,-0.4737852911,-0.958048982,-1.0234751192,0.9422206557,-0.1970515495,0.1812286716,0.1095171647,0.8249815854,0.0337129482,-1.4638821209,0.6623735929,-0.7971074907,0.9451780504,-0.2699008423,-0.2921687227,-1.9891814648,-0.3601191895,-0.1792744936,-0.9326909679,0.1234522571,0.5164115272,-1.0844920509,-1.1695147523,-0.2839408278,-0.6263589036,-0.722710965,0.3171765906,0.093134524,-0.8876945627,-0.3986851476,0.3662217114,0.139154164,-0.8494237466,0.5238069914,-0.9675418036,0.3213852466,0.1051714654,-0.064736779,0.2056190113,-0.1188133688,-0.6627202813,-0.7134719438,0.6619100948,0.1200956494,1.0278880049,-0.2048313986,2.1519051417,-0.2743742548,0.3189685215,0.0075042375,0.8620720726,0.5153132332,0.7941268915,1.5785551046,-0.3656184532,-0.3338226831,-0.495757733,0.8168059008,0.6436937513,0.139617591,0.7948871224,0.3252979091,0.0874539934,0.899886216,-0.8291915546,-1.0505327742,0.7467926599,0.4863289407,-0.1164029728,0.1170383716,-0.2373857434,0.6325869327,0.7082122796,-0.331622246,0.8455344742,-1.4365430331,-0.6327194653,-0.9812065542,-0.6596099369,-0.331472942,-0.3889917922,-0.148284445,-0.699056164,0.5263771204,0.1073014091,-0.1497621617,0.6129288016,0.4559631743,-1.1255394294,-0.716440858,0.1117003477,0.9759542923,-0.4333984613,-0.5598953316,-1.1220416394,0.5667763481,0.6836320138,0.4353267222,0.2437689578,1.1158827008,-1.7161757553,-0.4879556113,-0.7507233206,-0.4277361573,1.6889427105,1.3703947922,1.6702524854,0.6449829291,-0.4371299487,0.8092808338,-0.6640924585,-1.2023134325,-0.2859485943,0.0459511178,0.8384451382,-0.7142207063,0.1707763604,0.9240703083,0.4299347002,-0.1308671444,0.2187873969,-0.6664201477,1.8491012012,2.6288192066,0.2130334007,1.0493635371,0.0217321181,0.2481004416,-0.6493533923,-1.2258865696,-0.221090905,0.4683522443,0.7878155401,-0.2646990244,1.7103421969,-1.0239919487,-0.5779996555,-0.7159982382,-0.6840510385,0.4229575633,0.5080486293,0.088974348,0.980705068,0.5609116019,0.3652847122,1.993892744,-0.8178905147,1.206789811,-0.694667035,-1.002508149,-0.8740357195,-0.8964730209,-1.5718932561,-0.8957723431,0.1963871053,1.2621938966,-0.1533173352,0.0607411063,-0.6743766964,-1.0322484684,0.4245742428,0.1562381332,0.0412505086,-0.0754477344,0.1827729539,1.6212547384,-0.769303126,-0.0514435029,-0.843598669,-1.9985532406,-0.6409212034,-0.9892172578,0.3358488912,1.2483494257,-1.7023450322,1.8415635937,-1.2190716571,1.9286864038,0.5523618339,-0.7256162823,-0.2091127809,-0.3293409475,0.6514743978,-0.8693818942,0.1268994115,1.1345799973,-0.6633711197,-0.309085896,0.4115118722,-0.39878348,-0.2195372909,-1.3454670952,-0.7395942941,-1.0952821388,-0.8548354821,0.3803579327,-0.672597877,0.7494520616,-0.0452425982,0.615421209,-0.3738871231,0.5755579621,-0.727209756,-0.1293506874,-0.3974208955,-0.2822843181,0.5133521728,0.016664263,-0.8022891323,-0.6470615971,0.251134642,0.4622407392,0.4710460116,-0.6266864926,-0.6520101234,0.7649313998,-0.2308310844,0.5912722683,-0.6921093707,0.69162447,0.1154084174,0.9128061033,0.4057770437,-0.3374823222,1.0334535816,-0.1961622984,-0.3363341122,-0.6527357513,0.5633906121,-0.8162685012,-0.7279873193,-0.9461303106,-0.0078174797,0.2221174964,-2.0464660001,0.5074799118,0.4181614462,-0.5076018952,-0.9576686715,-0.2859443747,0.650336732,-0.3980133597,-0.3669251602,-0.3643699541,0.3164214289,-0.4746544336,-0.9629754161,-0.5638108557,-0.9425615718,-0.2140706375,0.0261133491,0.6286851729,0.0740719074,0.6034096517,-0.8920929069,-0.0096187787,0.5147398598,0.0246786187,-0.6813194941,0.2916378998,-2.2249394432,-0.3079710388,-0.6156274299,-0.8197143631,-0.7626485546,-0.5973211489,-0.1155791353,0.9781173206,-0.4135975589,0.1801937424,-0.9333689219,0.6625373377,0.9511367639,-0.3319987672,0.4694366223,-0.2569848413,-0.61125291,-0.2249580723,-0.0600676406,0.3095699744,-0.7076120261,-0.76000084,0.7277949415,-0.7296015697,-0.4790641688,-0.1515018304,0.2139126618,0.1805836144,-0.4576206647,0.6558277241,0.9750807798,-0.5411695275,-0.1958988481,-0.6817515531,-0.3721847842,0.2756035766,0.7884410124,0.4684789546,0.7281424457,0.2964330839,-3.5948706302,0.5075496219,-0.6749585913,-0.2497235001,0.9917025268,-2.8781060234,1.7505668293,0.2966500287,1.3882191601,0.6322876811,-0.7926884267,-0.5938569974,-1.9017550227,0.8862792502,0.2200833597,0.6886149212,0.1375954308,-0.8400428178,2.050465011,2.8181577712,0.3762364004,0.0448622674,-1.1833185417,0.3357084396,0.7024683538,-1.2117978677,-0.3222315225,-0.5440093628,0.1655265398,0.7901283902,0.9271294488,-0.1264169206,-1.3619349913,-0.7366766492,1.9395211785,0.6275879794,1.9362336098,-0.7309334249,-1.4402898622,0.4104230432,0.6888532397,0.7771682622,-3.1171982823,-0.2695403165,-0.1256347612,2.752466882,-0.8205541186,-0.1584497867,0.8384583644,1.3906431768,0.0099547677,0.1813152345,0.2495465026,0.3691614871,-2.2998132855,-0.5843860847,-0.3282780681,-1.0047287511,-1.036945263,-0.6293708309,0.283683868,-0.5147446139,1.0902573631,1.069681851,-0.4040471057,0.4718237449,-0.1546121146,-0.9804152002,-0.3002965359,0.9533740571,-0.4866729148,0.5091370979,0.2081916496,-0.8088450728,-0.5959409423,0.1664453785,-1.6902292781,2.107594422,-0.0071416361,0.4626057858,0.5360424998,0.3573363046,0.3041355356,-0.5307193077,1.6275757952,-0.7481546163,-0.3084452847,-0.5003123106,0.3659692295,-0.7653935019,1.4458958131,-1.1355113461,-0.3917742346,0.3019960486,0.7758382374,0.3225776989,-0.3012554444,0.6097953807,-0.3195461455,0.9284371695,-2.7153373014,-0.8370906331,-0.2813335437,0.8853375932,0.821103455,0.8076990962,0.3848552504,-0.4656346822,-0.1356625125,0.6755857429,-0.6773358075,-0.9334582978,-0.9538117743,0.2861846773,0.6896911928,-0.4514602759,-0.8615105159,-0.1479366825,0.3786409325,0.0077261658,0.3429145976,0.2114273901,-0.5380571666,2.4135036687,0.7385071522,-0.9345358219,-0.2620898296,0.355862497,-0.4035127084,0.0009515611,-0.5475936259,0.6319546992,-0.8066551269,0.5089760673,-0.1297684196,-1.1002886977,0.452995754,-0.5223898787,-0.5682419878,0.5456999998,-0.8697945991,-0.6613283435,-0.7731281705,0.081713751,0.0316208583,0.8374132572,-0.6164797364,0.1252959765,-0.0935413073,-0.1771102931,-0.5407355455,0.745734891,0.2246481445,0.0810581809,0.4269026745,0.5315555408,0.176129414,0.9303552569,0.5556706258,-0.9785711786,-0.6713784082,0.9325796794,-0.4893593019,-0.9736673956,0.3221454833,-0.3783651337,0.5207730303,-0.7632618243,-0.2564663612,-0.5132352637,-0.2582526432,-0.874228684,-0.2692826887,0.7341155317,-0.6371650493,-0.1392997108,-0.5990283357,0.4276467066,-0.854250437,0.6209823247,-0.9513036514,-0.3253518186,-0.3159054383,-0.2419794806,0.9517317985,-0.0114755056,-0.4116479984,-0.7396771019,0.4964621496,-0.206327262,0.0372223945,-0.8047891913,0.5141716291,0.6589470079,0.4431897187,0.0825782937,0.7008664718,0.2843651998,-0.6054249404,-0.8218384175,-1.2326163705,-0.8663634426,0.6946798119,0.2766381925,-0.2297582909,-0.3232913656,0.2465693567,-0.2682207567,0.5014641862,-0.4661427689,0.7960462626,1.1967098159,-0.7732037713,-0.9321151761,-0.3917942588,-0.4536651155,0.6007444577,0.6278086783,-0.0197352126,0.5404392938,-2.0131873013,-0.8630766692,0.3599676832,-0.6342985186,-0.1060174079,-0.9384626219,0.0623595311,3.6145737403,0.8709183787,-0.8371351973,-0.329832618,-0.7050947439,-0.5992225814,0.6883242607,-0.359608399,0.7638612204,-0.9714530097,0.9190540277,1.5851077367,-0.2100297482,-3.2402023856,-0.3961934384,-0.3913693611,-0.2590255852,0.3785440816,0.1576260378,-0.176146269,2.5455511826,-0.903440202,0.4582936365,-0.251816406,0.1526692486,0.836723593,0.8904774512,-0.6699680907,0.2992791289,-0.756210765,0.3569017867,-0.3127144975,0.3760321088,0.8338566697,0.0929192569,1.3790083564,-0.6665426631,0.6555268725,0.8356532576,-0.4646784923,-0.7975959133,-1.0958803515,-0.2435370144,0.2150742017,0.2653778672,0.9215665859,-0.4496969201,-1.2402789861,0.5434130414,-0.2570663744,-0.2359627731,-0.4887665098,0.6776352844,-0.6501038068,0.7329385143,-0.6817724981,-0.0201881022,0.0013022629,0.5713686877,0.3272616191,-0.9274047749,0.1717198708,0.4186830993,-0.9791796561,-0.5377837693,0.1581088546,-0.589652808,4.042501622,0.6935213839,-0.262194674,-0.9672841467,0.803294557,-0.9973838255,0.8263535233,0.1818133348,0.6322597388,-0.0039935927,0.8220202608,0.6263138011,0.7974236505,-0.0591137708,-0.6588403356,-0.295960607,-0.9268800702,-0.5556949441,0.2977435993,-0.0551231255,0.7499353023,0.5567038674,0.5632817495,0.9899260004,0.316903719,1.0463056785,-1.4619153762,0.8804874791,1.2147963035,-0.3991653377,-1.0246680958,0.6282075027,0.0970428589,-0.9888743683,0.9308726521,-0.7146951134,0.3581607332,1.2952919131,-0.2009735806,-0.2066971038,-1.4863874006,-1.2045381745,0.8866469288,-0.8911429904,-0.6716813434,-0.9703133723,0.1627462788,-0.9251792092,1.4034566641,0.3348918959,5.0172634971,-0.2619907003,-0.2336110334,-0.5064580034,-0.9698977746,0.2243278316,1.1482225181,-0.9557150438,-0.4103196229,0.2612995194,0.2395359795,-0.6555772874,-0.9218490253,-1.0789041901,-0.8421849599,-0.9627601477,1.4557251251,1.2666866437,0.0534039035,-0.6237442693,-0.5367261802,0.5795262932,-0.8227955145,0.829549835,0.660552365,-3.0608462724,-0.5233033569,0.9003066106,-0.3571376454,-0.8356791908,0.0606314624,-0.9931246374,-0.0522146421,0.370288619,0.4084153049,-1.9895397131,-0.4180985676,0.8613487621,0.6746917766,-1.327909573,-0.190876339,0.629403351,0.4880245404,1.275147632,0.2863164265,-0.133857429,0.5485299552,-0.4746422465,-1.6812480061,0.5563650357,-0.0743111142,0.9546252072,-0.6963199039,0.638128662,-1.1690303006,-0.0893005446,0.9022990374,-0.8309401038,0.3283946773,-0.8476472614,-0.3236837648,-1.779193262,0.0394314896,0.0193058266,0.4507294432,-0.1094968894,0.5385143351,-0.4711494228,0.0488126914,0.1798740885,0.6657874855,-0.4375708778,0.5249330426,0.7344108307,-0.1801436682,0.4382311507,1.0912143068,0.5002888166,0.9917025455,0.2180413066,0.4048260154,0.7752204209,0.1129214666,-0.9735692404,0.4020174779,-1.5255436801,0.209060901,0.0298070171,1.1336498089,-0.0252864359,0.8584484302,0.4427928877,-0.7529234625,-0.6583088511,-1.1382347316,-0.0231421195,-0.361412023,0.6416065881,1.5270999869,-0.2424994592,-0.0061156566,0.3023770838,-0.7910050611,-0.0299415518,-0.8965497938,-0.6478185815,0.2485529487,0.3115631374,-0.5797170206,-0.9435172692,-0.1343341705,-0.8613521079,-0.7567558299,-2.821318332,-1.1681221882,-0.3487156315,0.8916214037,1.0927941734,-0.3239037024,-0.703085272,-1.0797625883,0.2069560309,-0.7984144822,-0.6239885162,0.4396683588,-0.6825252557,-0.0403206886,0.65375022,-1.0526609783,0.5844444119,1.1848516639,-0.4977065241,-0.7412348405,0.3224671345,0.2953979587,-0.7594552865,-0.6497774366,-0.0683983842,0.3083979685,0.8718359246,-0.4180329215,0.3622434244,-0.8457106752,0.6274058182,0.7867486052,0.4494107827,-0.5797189371,-0.5334647555,0.6405582744,-0.0326334601,0.8764971466,0.3434165959,-0.4847462667,0.3448205978,0.6755619832,1.1492681732,2.173866957,-0.5113555338,-0.0820282211,0.6586147255,0.4491536777,0.3222221684,1.2546570192,-0.6274850925,0.6424102773,0.7022891329,-1.2659649679,0.7216045419,1.054224843,0.7456175737,-0.2811870531,0.1476585335,-1.9223338409,0.25476667,0.1498217779,-0.4772000269,0.0797008372,-0.1773677563,-1.8165093797,0.7599491871,0.7037432526,-0.0899621318,-0.703914079,-0.9814961715,0.0944351737,2.5702618764,-0.4373139998,0.3625221961,1.0716226722,-0.1488134507,-0.3686051628,0.0333755175,-0.6454599611,0.1693157174,-1.6985757818,1.9467568343,0.3149132297,2.387186128,-0.3308075773,0.1732939478,0.423930739,-0.1230560355,0.2604433164,-0.4477709226,-1.4742044813,-0.658790478,-1.0005379299,-0.3199461116,0.6764489546,1.2219031458,0.8979003665,0.8638523966,-0.1732062024,-1.4234122783,-0.2784640611,-0.835224476,-0.0213985586,-1.6796404945,-1.1579263461,-0.4317499951,-1.0419092277,0.367621471,0.5797401831,-0.1631886283,0.5536301368,0.8301449823,-1.0035482354,1.6803651124,-1.7624825741,-0.336781537,1.230441327,1.1488740915,-0.0670411753,-1.274970611,0.0870908337,-0.1033335334,0.3128652459,-1.7042458154,0.2280261627,0.9069524406,0.6345842121,-1.1397064315,0.7807504687,-0.8365265022,-1.2307480544,0.8202144336,0.8733724336,-0.1555993612,0.0332010795,-0.2335468726,0.9215403158,0.7543957668,0.4269688043,1.3658115776,-1.1450780992,-0.7808215914,-1.6235716605,-1.1413920656,0.0518581246,0.9102486977,1.0009832142,0.3278977195,-0.0133937926,1.2305760689,-0.7933788382,-0.5590665942,0.6892995178,-0.5573169691,0.8935367963,-0.3068464967,0.6008410882,-0.5926231465,-0.5457504975,0.2848791923,-0.0571342024,-0.8295036534,-0.7693240036,-0.028293563,-0.5420098763,0.23290638,0.984954765,-0.6433489235,-0.1382346533,-0.6977969501,-0.2069255166,-0.3230243621,-1.1079035834,-0.7605357549,-0.8093804744,0.1697390628,1.0500062858,-0.1657111844,-0.0207608275,-0.3074543741,-0.1719533941,-0.3262216632,0.4633558721,0.7918424691,1.9046822489,-0.9982906699,-0.6472586814,0.2498377127,-1.0231065321,0.4682358136,0.1793296635,-0.1201272171,0.8246111376,2.8020981817,-0.1435988434,0.2393745104,-3.1708918541,1.3288024728,-0.4246576481,-0.5259617768,-0.1798068161,-0.3349943574,-1.2086339446,-0.3566834076,-0.2562051858,-0.6742368912,-1.0522771605,-0.3117777671,-2.7180076204,0.4191306135,-0.3613283315,-0.0815467659,0.2840082409,-1.1561560515,-0.3451647402,-0.5321845955,-0.4542437552,-0.6098777545,0.5754520129,0.2820973018,-1.79067412,-0.1608413531,-0.3078692072,0.5366233802,-0.0033672109,-0.2648583153,0.1275868585,0.6709762864,0.3572916538,2.3511904289,-0.4770162883,0.6808934463,0.5147852779,0.0965839232,0.0812813308,0.7168068944,-0.0060315742,-0.6074861882,0.9691649116,-0.2747361145,0.1566476029,-1.0133832575,-0.6779430796,0.3343860382,-0.5671500598,-0.453910905,-0.4102883361,0.4124524512,-0.7860734422,-0.3710295624,0.5015278919,1.4089490425,0.9663701814,0.8088068079,-0.975006065,-0.4653486264,0.6743261888,-0.2106736002,-0.0061998253,0.5779121291,-0.198727022,-0.137436033,0.5704582644,0.3275954271,-0.4148017915,2.0182778478,-1.7209902994,0.6568774645,-0.1450930568,0.7473724477,-1.1807325891,1.1580664383,-0.9387364296,0.1450999547,0.0647972365,-0.0458070679,0.0765426057,1.8352396427,-0.9573168792,0.5461359688,-1.0497319249,-0.5066526212,0.349974648,0.8257256359,-0.8255401852,1.5411035522,-0.8459281164,-0.888776924,0.5801457135,-0.1096810025,0.2771874034,-0.5155878798,-0.1944925019,1.0426820339,-0.424930568,1.1632353182,0.5381253559,-0.587972232,-0.4331845473,-0.1159746104,0.6463165373,-0.7485535859,0.206859762,0.206725162,0.9694965912,-0.8737696664,0.2889695568,2.9655522847,-0.2434142237,-1.0339774641,0.4983200052,0.9235561972,-0.7854653324,0.8234862206,1.6215327441,0.2145640882,0.0918812963,-0.0962097072,-1.0575792035,-0.5473247085,-0.6476062838,-1.3090296562,1.002115205,-0.6159061376,0.3601012182,-1.5646024819,-0.0884390521,0.7666059361,1.2476157554,-1.535976903,-0.147574783,1.0372545335,0.0709798446,1.1989692646,-2.9920263964,0.9656995084,0.6811249321,-0.5878255002,-1.2179282198,0.0654811142,1.2753474016,0.3572231497,0.147565781,0.4787841166,-1.4383081793,0.5983747726,0.5553906197,0.3717431235,0.9174628354,-1.087152335,-0.5107572876,-0.5713450249,0.0417957326,-0.3281772819,-0.321398817,0.3617691387,0.8346646017,0.3134044796,-0.3761863468,-0.7027361339,-0.6524841492,0.106964197,0.0052018525,-1.3861367526,0.5297840122,-0.077549302,-0.7944948134,0.6134348857,-0.674832961,0.8335342967,-0.2647819561,0.4400001604,-0.8192866793,-0.3226808843,-0.5446096986,-0.5837076757,0.7813628738,0.485578735,0.997118982,0.1961744465,-0.9559887987,-0.6682381481,0.1493310637,0.9706735534,0.5178892348,-0.060022697,1.3902035907,-0.5339369156,-0.9488408928,-0.1471989522,-0.0145586072,0.0150588945,-0.7516649764,-1.1027529091,0.7900262693,0.4533678588,-0.4207910991,0.8534820599,-1.4166241678,0.442023134,0.797759462,-0.7264993242,-2.5611830235,-0.2409436835,-0.2693928428,0.4745310602,-0.2152039828,0.9053209752,0.022063856,0.5428601628,0.6871829013,-0.4820142491,0.0510802348,-0.7519661493,-0.9947706649,-0.3848894022,-1.0453497676,-0.7571444759,0.1901635917,0.7890721558,1.0604670151,0.8637673859,-0.2144003395,0.2832573943,0.3595886273,1.2345393402,0.3163772084,-2.1078874398,0.4952863386,1.0917977338,0.7382615143,0.1056377044,0.8329576644,0.7668499112,-0.1317514456,-1.5408762946,0.1617769303,1.1036725776,-0.3507774616,-1.2911705854,1.1186156262,-1.6186056071,-0.211645547,0.5772153992,0.145237591,-0.4074412496,-0.0216863974,-0.8410197956,0.8037524417,1.0591126034,0.0219170612,1.1235439912,0.5893365036,-1.2254401768,-0.7413212047,1.1494677522,-0.494322964,1.5609048356,-0.9418470264,-0.7530887294,-0.0601059575,0.2077152899,0.8570100099,0.5128933709,-1.0252495504,0.7623433843,0.3492509739,0.9035922412,0.4376831021,-1.8612951886,0.9462815729,0.1153072127,-1.0619109923,-0.849672773,-0.3697071882,-0.7224288396,-0.607501388,1.0021947124,0.5000389296,0.8073250536,-0.1736396157,0.5166853916,0.6903548865,-1.1654733797,0.7732624602,0.8122695292,-0.3646101707,-0.2484395568,-0.9007774257,0.3346781832,0.0291547739,-1.0971332297,1.2333626793,0.0654752822,0.171013293,-0.3244040405,0.7927157824,-0.3562916459,0.4445944574,0.9376497439,-0.3459509859,1.0179687618,-1.1886083726,-1.7361814367,0.7272658059,0.4746130788,0.7639158149,-0.6074645168,-0.2913821949,0.1801412533,0.3592034873,0.0529340938,-1.2284586185,0.5268871879,-0.2993606654,-0.2137712848,-0.8179787019,-0.2833349053,0.6582581506,-1.1820121711,-0.5574069729,0.7553900011,0.2727024023,-0.6110200574,-0.3994760318,1.3725516217,1.3424714794,0.9949691141,-0.2216790385,-0.0486316517,0.127448922,-1.0160816158,-0.5556159585,-0.7120138946,-0.3002890751,-0.8374270994,-0.6015113792,-1.1683003667,0.6387396483,0.3738475363,-1.2583839894,1.3834947635,-0.4899817578,-0.2209348895,-1.4137491405,0.7451077065,0.0947033194,-2.9607539056,-0.0565304789,0.6535255651,0.6751949605,0.1650855348,0.006605016,0.0366679972,-1.3404640215,-0.2383853654,0.2273441208,-2.4998622452,0.9267646129,2.3954357742,1.0433659595,0.3286775272,-0.5627446036,-1.5661665533,-0.6505923264,-0.2136933575,0.5421011882,0.9846709921,-0.6161212211,-0.4757088387,1.0739179729,0.0439778129,0.0007847774,-0.4590400385,-0.8488749655,-0.0705450713,-0.9945532881,0.2066048466,0.1337739678,3.358092992,0.1513267977,-0.7064802167,-0.107771685,-0.1416442416,0.326550783,-0.1267765065,-0.5608112521,-0.0953179651,0.4536221514,0.9076702427,0.11200614,-0.2741657109,-0.8902764286,0.2737799426,-1.1319601571,-0.3520300329,-0.0104684374,1.3563019276,0.8449580127,-0.8173117604,-0.5741103708,0.4807409976,0.1859451056,-1.3804910513,-1.3608885046,-0.0198142247,0.0976865336,1.058446963,-0.3598548771,-0.1355221258,0.3866440776,-1.0250800688,-0.4654810034,-0.5612774557,0.3536914494,-0.3840093924,0.4865842931,0.2393996741,1.5628130824,-0.4780053314,-0.2208526718,0.6748279998,0.6441091777,-0.9713854701,-2.827279186,-0.800000901,-0.4613391033,5.1448979047,-0.2728319978,0.6628412528,-0.0211857393,-0.7760986412,-0.2369992086,0.10200666,0.5737728319,-1.1020819087,0.9539186581,-0.78455707,-0.9226530184,1.0975189534,-0.2021781513,-0.7203139333,0.7697852121,-0.0478550343,6.5671385784,0.0373828437,1.8863461443,-1.2924185304,-1.045696176,-1.9292181202,1.3382627338,0.6007651931,-0.5488777913,-0.1537750358,0.4420362645,-1.9503050607,-0.621243971,-0.8437642094,-1.9198450792,1.0391865741,1.0854928361,1.9890557752,-0.4962671554,-0.5887453795,-0.3907444949,2.8744579932,-0.0714536788,0.3488569137,-0.8969039987,0.3206429116,-0.668934394,0.5017976102,0.8663447958,0.3413027775,-0.783679762,-0.07331914,-0.5402153302,0.1119571978,-0.9510666354,0.9898755236,1.8010034811,0.5815367672,-0.264837475,0.1833820376,-0.6899234051,-1.1277070186,-1.4654124887,-0.0658222804,0.3498184292,-3.2292315888,0.3333722052,0.8114854681,0.5066078185,-0.856175636,0.0659801344,-1.0529865562,-1.9810208658,0.4797067477,0.5547590905,0.8544876693,0.9465734512,0.7179205327,0.1515217742,0.239891349,0.7371691963,-0.4247832081,-0.7631446279,-0.6891063287,0.123371266,-1.2469153083,-2.0984490067,-1.037586056,0.6338428351,0.5140604901,-0.2111205376,1.0483673638,0.9170578149,0.2248346342,-0.205511976,0.13922154,0.3438623898,0.0865008961,-0.0740692693,0.0372729588,0.3113468872,0.5593972214,-0.3376289518,-0.1581956184,0.6762889031,-1.7585777112,0.7485780408,-0.9743026154,0.0651160463,-0.919086205,0.7361521377,0.8220454395,-0.2565116307,0.6252159056
