encog,BasicNetwork,java,3.4.0,1,1589877944601
[BASIC]
[BASIC:PARAMS]
[BASIC:NETWORK]
beginTraining=0
connectionLimit=0
contextTargetOffset=0,0,0
contextTargetSize=0,0,0
endTraining=2
hasContext=f
inputCount=10
layerCounts=236,17,11
layerFeedCounts=235,16,10
layerContextCount=0,0,0
layerIndex=0,236,253
output=0.0037480589,0.000902413,0.003809538,0.0038495352,0.0016012497,0.0016872194,0.0014052526,0.012206412,0.0051722411,0.0016648352,0.0089458722,0.0004388542,0.0011505948,0.0026233238,0.0038441503,0.0009762889,0.0031981897,0.0019044396,0.0040138961,0.0075086653,0.0022994673,0.0003083141,0.0051871706,0.0061711825,0.0027861994,0.0016691511,0.0013588829,0.0109790591,0.0046622969,0.0002413788,0.0021736858,0.0012988272,0.0028161469,0.0015955748,0.0031626165,0.0048654127,0.0008046029,0.0002819818,0.0014030903,0.003682973,0.000647301,0.0035319016,0.0028435297,0.0065405077,0.0009091876,0.003321395,0.00289223,0.0025838477,0.0015976681,0.0062963321,0.0020589913,0.0024702766,0.0085534878,0.0072024357,0.0031309685,0.0022892818,0.0015329941,0.0050531125,0.0035590201,0.0018433791,0.0028187971,0.0027394862,0.0080417728,0.0025377137,0.0097611583,0.0028639003,0.0050384577,0.0066776152,0.0045885351,0.0007649938,0.0011590233,0.0015894323,0.0003726798,0.0010613841,0.0020170714,0.0025083149,0.0009224932,0.0022945042,0.003360741,0.0099869823,0.0066597374,0.0037751668,0.0011864228,0.0014613264,0.0010462886,0.0021940611,0.0040136632,0.0030322851,0.0085138331,0.0034445029,0.0008940125,0.0020381564,0.0027133281,0.0007494935,0.0037886761,0.0021232352,0.0076914461,0.0030174792,0.0038877673,0.0019035377,0.0057438423,0.0022315732,0.0124400785,0.0028828621,0.0032752598,0.0023511418,0.0046092695,0.0017201443,0.0017494283,0.0045112395,0.0010853995,0.0030322237,0.0058832594,0.0029976109,0.0023499921,0.0007097487,0.0003012143,0.0045864532,0.0041174256,0.0019003682,0.0003841053,0.0030747581,0.0022238366,0.0009429288,0.0019055765,0.0027883009,0.0027936963,0.0049729709,0.0026704372,0.0032508263,0.0013779376,0.003712252,0.0016185927,0.0003990529,0.0018652361,0.0014881764,0.0013686,0.0038285903,0.0011478784,0.0022239272,0.0032280272,0.0031156908,0.0065821705,0.0081485443,0.0067843846,0.0031031068,0.0014280595,0.0052685209,0.0045060648,0.0037877352,0.0010796011,0.0027381302,0.0034232588,0.0008377903,0.0008514867,0.0054752485,0.0030630502,0.014350603,0.0018961306,0.0016859312,0.0063948561,0.0008715077,0.0026368521,0.0005904894,0.0017619205,0.0026491633,0.0004996367,0.0048422091,0.009025043,0.0061353459,0.0020174087,0.0020074593,0.0055628782,0.0018717864,0.0103918398,0.0018319042,0.004634325,0.0035327125,0.00437336,0.0014837626,0.0012678542,0.0002042902,0.0029300013,0.010116764,0.0016404969,0.0131653575,0.001230403,0.0042759925,0.0012517433,0.0097233145,0.0013269259,0.0038521791,0.0019870446,0.0052001496,0.0035068443,0.0003003853,0.0022137545,0.0034656478,0.0022353208,0.0012670271,0.0030193909,0.0035448415,0.0049269384,0.0149520596,0.0079129437,0.001107808,0.0036648605,0.0013193977,0.0003249473,0.0097773293,0.0056115216,0.0069016406,0.0060854522,0.0043565412,0.0029512013,0.0017295883,0.004905435,0.0004800264,0.0044943721,0.0056281035,0.0005723507,0.0035930349,0.0013451384,0.0006745579,0.0051900388,0.0009469453,0.0056062243,0.0019180533,0.0006107189,0.0117562032,0.0014109473,0.0009384053,0.0005421261,0.0025578856,0.0036162029,1,0.9999999999,0.9999999734,1,0.5900591103,0.000073403,0.9780727756,1,0.6921189499,0.0000164241,0.0000000599,0.0001355893,1,0.9999179984,0.9999990756,1,1,1,4,3,2,1,10,2,1,7,9,10,1
outputCount=235
weightIndex=0,3995,4171
weights=##0
##double#4171
   -0.1115891781,-0.949922757,-1.3886217521,0.2179266089,-0.5968913019,0.1818065843,-1.104929631,-0.7870450597,-1.2898441835,0.0722882633,-0.3081270638,-1.0077788184,0.4991679031,0.1653867556,-0.1442432719,-1.2123363168,-0.0894280407,-0.9450028174,-0.0465692449,-0.0461506188,-0.1789684771,0.2068289315,-0.8140010046,-1.1942913267,0.0772064979,-0.9593685972,-0.8410116833,0.756716,-0.4394567807,-0.4981732417,-1.5547775689,-0.7928719761,-0.2086730007,-0.4353950349,-0.6006404837,-0.4021011234,-0.7053936207,0.8391810157,-0.5442431347,0.8934683694,-0.6857573235,-0.9160662511,-0.3850695573,-0.2702023947,-0.782388776,-0.8531603479,-0.1513177886,0.596373976,-1.0285540662,0.2735974807,-2.7443534093,-0.7059984783,-0.450551244,-0.14481511,-0.5380390569,-0.1647526734,-0.4757936663,0.4882477303,-0.0349525301,-0.373407261,-1.3102735886,0.4332180127,-1.0908831656,-1.1281508244,-0.188629066,-0.0768365309,-0.3285090749,-1.1229262706,0.3133710211,-0.476724374,-1.2497937411,-0.4315679951,-0.9092237922,-1.2355392811,-0.5776981266,-0.6584210087,-0.6643548997,-0.7441010369,0.7985037017,-0.9710842416,-1.1068004047,-0.0426373668,-0.6516600268,0.1250999459,0.121241169,-1.2744620309,-1.0516660884,-0.4172717213,-0.2718728399,-0.6646460853,-1.0091901125,-0.3757985911,-0.0571985764,-1.4525468031,-0.6831656708,-0.5955401937,0.4546457144,-0.0587105242,0.5310046318,-0.0034450409,-0.7991618587,-2.2008995753,-0.4927094516,0.7586513522,-1.1128107379,-0.0678249158,-0.7445275107,0.3789481062,-0.6174210465,-0.0752719427,-0.2482257227,0.4524642946,-1.1810591602,-1.1771432056,-0.8421666834,-1.1634616597,-1.0823476031,0.0418394858,-1.1569346632,-0.8361244538,-0.0506430607,-0.095083846,-0.1120444664,-1.0247559399,0.1313275929,0.1143364272,-0.3378231625,0.2197733469,-0.7798238845,-1.9926945778,-1.4464130263,-0.0117410616,0.1822862996,-0.8710069104,-0.8272767954,-0.3800261688,0.447746014,-0.7378506794,-0.3116501844,-0.0182939913,-0.7165289004,-0.6838583189,0.5565551693,0.864830135,-0.5944375523,-0.0385019361,0.7298442292,-0.5301210067,-0.3571417543,-0.2811495802,-0.7881505997,-0.5785141394,-2.5979605276,-0.3159943245,-1.061258732,-0.3741473118,-0.2534196645,-1.4127215063,-1.2401551944,-1.1974001257,0.386454077,-0.156550828,-0.3285707605,-0.9526718924,-0.7041288283,0.2520831575,-1.0228606473,-1.1621458003,0.0776660638,0.2071012101,-0.6237830537,-0.0324108592,-0.5318468413,-0.7030149076,0.1435964207,0.1064097906,-0.1698781418,-0.2076172694,0.0415781614,-0.1305877622,-0.9669112271,-1.2704857634,0.5937952685,0.2175105521,-0.0315283694,-1.5206595724,-0.8836816907,-1.1236955373,-0.9969743225,0.3461365426,-0.7340797988,-0.0895326182,-1.0956030778,-0.935669441,-1.0356024992,-0.3594266702,-0.1432637439,0.1187591219,-1.3808738333,-0.1658368903,-0.9000673301,0.000386359,0.2780758785,-0.6309137763,-0.8017040068,0.23524451,-0.8286102993,0.0298423512,-0.4972256023,0.0340941033,-0.8799570623,0.5549594379,-1.0166380628,0.1594689766,0.2936530033,-0.5810236842,-0.9302409659,-0.3821420898,-0.2647524203,-1.1667668471,-1.6014885968,-0.919357131,-1.24595823,0.3573803657,-1.4558851567,0.0418034831,-0.5679120394,0.0094979246,-0.2054168575,-1.1563123648,-0.5335922487,0.6818461311,0.189517376,-0.3489109366,-0.4160623595,-0.8520753144,-1.5134727546,0.3553396816,-1.5522611932,-0.016756893,-0.4861043115,0.0222681032,-1.6125969086,-0.6266765511,-0.9442302879,-1.4336112357,-1.5209392133,-1.5630152363,0.241223404,-0.0824157827,0.4246508753,-0.8141644595,0.2111630796,-0.8435697654,0.1385076966,-0.9507331238,-0.8031188554,-0.7343838127,-0.271511697,0.6228519065,-1.0810092844,0.2081226122,0.1534104325,-0.7665434201,0.3556342823,0.3588419345,-0.8487495369,-0.4215967767,-1.071440323,-0.7160759895,0.1379348014,-0.619516196,-0.7243936464,-1.1484477673,-1.4664038443,0.0724675879,-0.4438367429,-0.4553250553,-0.2438780118,0.1368967537,-0.7041934264,-0.1667549074,-0.0670957537,-1.4429980573,0.1589867778,-0.7388932208,0.1690106876,-0.0734432428,0.0763909093,-0.1164764868,-0.5569491224,-1.193262336,0.4474922706,0.1042363145,-0.6912596284,0.0305308787,-0.5405951669,0.1892667568,-1.1039353801,0.3359102088,-0.4233871165,0.2904924083,-0.1200052809,-1.3189495589,-0.6743273025,-1.3931483679,-1.0718102166,-0.8833712678,-0.3667686175,-1.0555410045,-1.2300971081,-1.2229332447,0.2930396686,-0.0846819234,-1.0237335165,-1.1188801003,-0.654719745,-0.4390077445,0.2026286555,0.270568228,-1.1338775519,-0.9457993034,0.4381992598,0.2077685304,-0.636420099,-0.6141323667,-1.4186968672,-2.3221826039,-0.170128939,-0.0895707516,-0.5353856852,-1.8606452049,-1.2459950989,0.6630117494,-0.6373357599,0.2053801251,-0.9072429893,-0.9549174647,-0.4182095828,0.3347110503,-0.0781801116,-0.2098314973,0.292790327,0.2812828775,-0.9103754917,-0.7360413891,-0.3414601306,-1.5586204035,-0.5216026037,-0.5513579699,-0.0139769026,-0.0600093774,0.144572386,0.3179080617,-1.456233684,-0.5741818342,-2.4753811249,-1.0036332385,-1.2649041705,0.112398438,-1.0969001262,-0.3735655539,-0.6850332544,0.1456439591,-0.9902103499,-1.3061501522,0.3722481144,-0.158946722,-0.271907257,-1.3827986145,-0.1771402328,-1.259065057,-1.0939054644,0.1137770275,-0.9566092329,0.3681973622,-0.1029501444,-0.9630588614,-0.1706695104,0.3897157934,-0.7028384668,-0.4882936456,-1.6400041379,-0.3073062459,-0.4865738879,-0.8901325348,-0.0120121125,-0.641884807,0.4476368283,0.1272023012,-2.3678230041,-0.3708546621,0.0755785292,-0.5039292429,-0.6236470334,-1.3503497144,0.0697756643,-0.1653298304,-1.325990811,-1.8089817625,-1.3525673233,-1.006415932,-0.2621952994,0.5944038897,-1.3908865571,-0.4149542193,-1.032567213,-0.393140769,0.2262874747,-0.2069750587,0.3113091554,-0.7194923932,0.5246365092,-0.4454479128,-0.7862962021,-0.1766386121,0.5106539002,0.5344077589,-0.7758882331,-0.0356309573,0.3488145156,-0.1414573297,-1.0553929187,-0.2258393677,-3.332540873,-0.3817132514,0.4159616061,-1.2058048014,-0.9790175823,-0.5177224068,-1.3813663243,0.1726019799,0.2791752695,-0.0015877167,0.0261927124,0.1898114313,-0.1107930578,-0.4999870127,0.0154306275,-1.4531605233,-0.4385165979,-1.1722846977,-0.0909992147,-0.1961775046,-0.9507379632,0.0857643955,0.1666968607,0.0660690576,-0.4454766416,-0.3399185011,-0.57589843,-0.0775781292,0.1307653832,-0.8178445636,-1.2969208273,0.1987319647,-0.6232652467,0.2293069306,-2.4864384603,-1.061670931,0.4133622703,-1.126496451,-0.5841608703,-0.9094178748,0.4713303929,0.2603813011,0.2948070476,-0.005929808,-0.3700997287,0.0894169424,-0.8599090367,-0.3210459495,-0.8674596614,-0.3191583334,0.135486884,-1.0745357518,-0.1807845871,-0.6503404678,-0.8115751437,-0.0077152227,-1.3631129248,0.4918835569,-0.3197240719,0.6019767615,-0.5365742999,-1.1808713366,-0.6008487744,-0.5500082718,-1.0317386478,-0.3397903308,-0.4477269895,-0.8034600646,-1.1215048005,-0.7839349666,-0.2452704987,-1.1650224782,-0.7130190552,-2.0691692802,-1.0231239957,-0.2827315179,-0.1094051309,-0.1025038276,0.488019903,0.2830793518,-0.9619004455,-1.0314166095,-1.27200792,0.5070109326,0.0657900259,-1.6622544856,-1.0831441827,-0.1412754839,-0.9755370884,-0.4929568473,0.2701043145,-0.5351352165,-0.1157288925,-0.774031597,0.3717325266,-0.1142775536,-1.0792415865,0.1588095995,-1.1199685925,0.4386117304,-0.1871212452,-1.1160837797,-0.6376912525,0.420268922,-0.9563477187,-0.9959117171,-0.579358673,-0.5538440742,-0.9240175051,-0.3761875318,0.230424759,-0.2206491863,0.1125724463,0.0928159201,-0.7308617853,0.0231147703,-1.0052854463,-0.4591231844,-1.3632471667,-0.1152495646,-0.8379363349,0.3635916347,-1.0844017567,0.3516333658,0.1863938204,-0.1210786652,-1.4838416894,-0.2419571468,-1.4287010243,-1.3009018114,-0.3901102868,0.0439032076,-0.931082717,-0.6314821123,-1.3225921206,0.0524328677,0.0402316826,-0.267783933,-0.1558691747,0.0202193616,-1.3886672616,-0.1449050287,-0.8892955873,-0.3192043759,-0.6971609891,-0.879310682,-0.9692514933,-0.3233999878,-0.8141406241,-0.9247591301,-1.0658344532,-0.7028761787,0.1404416373,-0.1774154457,-0.4528170923,0.4123439334,-0.5815191026,0.380277991,-0.8852071056,-0.442563779,-0.0860903617,-0.1580521441,-0.8568209739,-0.9319602398,-0.5740474851,0.1844960821,-1.1102427142,0.183737379,-0.329156373,-0.6091972541,-3.0468124019,-1.1297784478,0.2190461101,-1.0489708518,-0.4636502118,-1.1684838969,0.0097857169,-1.2744442594,-0.6071970615,-0.1346070061,0.1036632345,-0.2638345407,0.0315915797,0.7629688707,-0.5700214929,-0.620475377,0.5051439349,-1.5113382526,-0.9100735212,-1.2410391308,-0.5377299071,0.3592071192,0.6528421917,-0.1312698669,-1.063442456,-0.4298109517,-0.0532779389,0.3397906819,-0.0768526048,0.3758583976,0.0146591535,-0.8188198955,-0.0767641586,0.2385154341,-2.8916385631,-1.2412205937,0.2045375663,-0.1616821833,-0.3806327807,-0.1391776707,-0.7169848684,0.1646605379,-1.5667259082,-0.0668774826,-1.4246871355,-1.1278206829,-0.2749506454,-1.1702154343,-1.139343222,0.338049485,-0.6576191278,-2.225315024,-0.9806257558,-0.8684010474,-0.5655928169,-0.1134167592,-1.1197627341,0.378558342,0.4449870543,-1.2665317996,0.6683518292,0.8440350347,1.0727564105,-1.0858592299,-0.0428245979,0.2918485895,-0.21458402,-0.4362439386,-2.5372001588,-0.1857618258,-0.1573655571,-1.1502356343,0.3479143473,0.4115011839,-0.7373741366,-0.7422295966,0.5739482754,0.0423281404,0.2157505365,-0.2717949943,-1.1753798628,0.8455464926,-0.9469338065,-0.4496916409,1.0916967096,-2.6112410362,-0.8640667407,0.5965839425,0.2621872271,0.7454647742,-1.1868358961,-0.9040620917,-0.2615022691,-1.2896914538,-0.473550838,-0.9539780044,0.8996467717,-0.6147587249,0.2961559781,-1.0073710266,-0.5899275535,-1.018835571,-2.8035303592,-1.3922250268,-0.9919673243,0.2450329728,-0.9046937431,-0.3242950159,-0.548087927,-0.3659605328,-0.3133476923,0.7268956591,-0.9921586448,0.211223853,-0.2002536346,-0.4731968503,0.6261191517,-0.1073652826,0.7622507748,-2.4581033861,0.31714034,-0.138170949,-0.7242062085,-0.6338142985,0.0913123315,-0.404917278,0.4340131436,-0.9734217291,-0.4266204481,-0.2373998513,-0.168079942,-0.2202413099,0.7952328965,-0.4444446849,-1.2463401659,-0.1765713023,-3.0124353313,0.2744594977,-0.1209953413,-0.1189087239,-0.9116724882,-0.9936130119,-0.9164352814,-0.3322799043,-0.3185372367,-1.1072773423,-1.6385104353,-1.1303039128,0.453594602,-1.1225359825,-0.360924682,-1.6200616047,-0.422901873,0.0022743143,-1.1667250077,-1.0297792536,-0.0272009529,0.0353931327,-0.1912847922,-1.0101377448,0.3235527038,-1.3771408197,-1.0288959627,0.0740631015,-0.0831990277,-0.7138082459,-0.9725503034,0.4615960772,0.0756019495,-0.3837459061,-1.6487782331,-0.0425103371,-0.6685658934,-0.5143190914,-0.048714333,-1.1098722639,-0.481937715,-0.113870295,-0.8248819413,0.0734913966,-0.5685710197,0.6829660148,-0.9960525854,0.6777905573,-0.0848724335,-1.0582776798,-0.6659300413,-1.1663615981,0.4833540799,0.106923039,-1.1007181451,-0.1363919079,-0.5810186564,-0.2134336377,-1.0155400463,-0.8358838215,0.4470225807,0.3520452269,-0.0011794766,-0.7599334019,0.6603799962,0.2512362851,-0.7032749771,-1.1850799457,-1.7123241123,-0.3906663917,-1.0761912858,0.1755086916,-0.1248584152,-0.2202622136,-0.2092419105,0.0697497144,-0.6477143652,-0.5124682419,0.1589975431,-0.7786259569,-0.0966885696,0.0872766329,-0.8705154318,-0.9234019649,-1.3212183001,-0.8829820162,-0.5536967968,-0.9398661324,0.440732711,-0.2542142842,0.7141707178,0.2289856498,-1.2015729639,-1.189985483,-0.1366767802,-1.2183779326,0.7627267987,0.0011485458,0.6262994607,-0.9233982224,0.3325529113,-0.6779294185,-2.7923359993,-0.3051892596,0.4671845857,-1.0182104837,-0.8659949529,-0.9186171054,0.1574148664,-0.4348178056,-0.6019752744,-0.9533779111,0.2480316827,-0.8562897269,0.2973560109,-1.0876066118,0.0044580083,-1.1140154212,0.0133392296,-1.1101965104,-0.22904853,-0.7858843787,0.1559771796,0.2187717865,-1.025397918,-1.0536977853,-0.4572909823,-0.7620238958,-0.4887661853,0.2030878125,-1.285648001,-0.265707943,0.339381525,-0.5211168956,-1.0397315104,-1.0846337655,-0.8662217075,-0.7936971392,-0.4926224262,-0.4879573924,-0.2962996206,0.3084168656,-0.1001763865,-0.2674938669,-0.8333898064,0.1587204175,-1.4201789839,-0.1167506233,0.1069842181,0.259691411,-1.5461647987,0.0882732674,-0.4419425885,-1.5763930215,0.2355335105,0.7825424081,-0.2016410718,-0.6864491964,-0.3076954428,-0.1947232111,-0.0254553691,-0.1390766843,1.677331409,-0.3722839438,-0.9419102596,0.249605674,-0.5828597917,-0.6873912737,-0.7553659313,-0.3436621182,-2.7323008608,-0.7547517281,0.6605289143,-0.2091264289,-1.0484894124,-1.14365132,-0.3421294324,-0.2816585003,-0.1770292543,-0.0850546949,0.5135029735,-0.1702438056,-0.5493993261,-0.0690254735,-0.7253336374,0.1910266929,-0.2668035938,-1.845638845,0.1195553915,-0.8010336456,-1.334634989,-0.3424062949,-0.1524203991,-0.8965041289,-0.2959319389,-0.464214431,-1.5186980107,-0.7437611141,-0.581094071,-0.8727052158,0.3511550758,-0.6402938215,0.2080291259,-1.3041939133,0.2070979011,-1.1765017051,0.74987116,-0.433434507,-1.152714862,-0.8798642471,-1.1043293896,0.399927627,0.3919544294,-0.4510998051,-0.3291363137,-0.8741590221,-1.3690706403,-0.344322792,-0.9153013936,-0.8930361079,0.1842681964,-0.7904582468,-0.0509045848,-0.1904837652,-0.7408229378,-0.5725726215,-0.1914835233,-1.1900944055,-0.5064221462,0.0968497422,0.2882082979,-1.1288777009,-0.1874923549,-0.5200792048,-0.6604202692,-0.7571749874,-0.4980125608,-0.7744426061,-0.345436282,-0.1601906844,0.2943695982,-0.0998996979,-0.7174968191,0.284586285,0.366875443,-0.6605823252,-0.7054121072,-1.4070484446,-0.7922839542,-0.4790161626,-0.7427539017,0.4384028581,-0.4044557291,-1.0659822509,-0.2835234311,-2.0452028537,0.1234585526,-0.6162197943,-0.007665538,0.2885813931,-0.6145889281,0.1225044112,-0.7962104051,-0.0280449354,-0.3142681083,-0.4903020308,-0.5549246133,-0.6750767339,-1.1873230112,0.5655793124,-0.9567939728,-1.0834824766,-1.2716297671,-0.461311839,0.3128998113,-1.3402655704,-1.1736179884,-0.6383666408,-1.0269746097,0.3981591162,-0.0126405125,-0.7650408834,-1.2774963481,-0.624510486,-1.5468175943,-1.2033145966,-0.6546054447,-0.5269049636,0.3722277517,0.0613770144,0.3595692437,0.6481603653,0.1542357713,-0.563696571,-1.5580495276,-1.2918210559,-0.3030540416,-0.6683099814,-0.8075782957,-0.1778253613,-0.658259067,-0.3863943063,-0.2489161597,-0.4565216161,-0.5598092709,-0.4102132771,-2.6068236044,-1.0932770421,0.1999178593,-1.0323901592,0.3137711753,-0.297832492,-0.715232243,-0.1266930218,-0.4034850032,-1.0769594414,-0.861474822,-0.5951840253,-0.1107977671,-0.3696899135,-0.9215383452,-1.313431124,0.0443522769,-0.3799400263,-0.3428039746,-0.4484585622,0.0171522101,-1.0955268811,-1.2276827877,-0.6129904752,0.0238354436,-0.3736385441,-0.2385487934,0.2052006249,-0.0761910757,-0.8635977075,0.2630018991,-0.7922600991,-0.6651381609,-0.1725856759,-0.3294744037,-0.085466067,-0.4395143232,-0.1063073105,-1.3279670191,0.6033824574,-0.8485516987,-1.1779616515,-1.0181182868,0.6028137727,0.107136107,-1.4025251707,-1.533644753,0.2640131636,-0.0473417414,-0.1124791033,-0.3261787472,-0.0907293774,-0.5818174816,0.1711475314,-1.1514778794,-1.0229865974,-1.2744765431,-0.1447479423,0.1972965471,0.4288529504,-1.1646512554,-0.1437472713,-0.1606325284,-0.664860045,0.1951508294,-0.5895565665,-0.7397498708,0.1038598058,-1.1109987036,-0.8994236729,0.0736484081,0.1156648165,-0.2002727218,-1.4100028431,-0.3427185817,-0.1716075694,0.0307895562,-0.0836109496,-1.1389356709,0.5195579003,0.5717072495,-0.9152041688,-0.4905046608,-0.8450174357,-0.5844388507,-2.2755015487,-0.6339899556,-0.7101385384,-1.0900245029,-0.0069405207,0.2690393944,-0.2098928779,-0.4906678244,0.0255279893,0.0348657306,-0.7888437543,0.2224599866,-1.332025978,0.6628665416,-0.2042334304,0.1606338848,0.2694620085,-1.7257651288,0.0787804437,-0.9816263091,-0.5359251439,-0.0711118775,-1.0456814829,-0.7886475236,0.010069578,-0.6763677422,-0.2708312529,-0.6047902265,-1.7524381993,-0.7243643129,0.2757611564,-0.304067725,-0.0707257211,0.1754826743,-1.643896013,-0.4760580903,-0.6257906062,-1.3787900866,-0.8636726402,-1.6972002607,0.003736714,0.2162899994,0.1798404987,-1.0092948941,-1.4414589143,0.0725571371,-0.4710435032,-1.1379179434,0.3219034866,0.2130071987,0.0697784969,-1.7294438163,-0.4069931401,-0.3026016404,-0.3007609678,-0.8380607779,-0.9098884511,-0.9390174948,-0.7727576979,-0.9715223942,-0.4210560992,-0.107294476,-0.2921446853,-0.2920014255,-1.1907403097,0.3775610964,-0.0162389221,-1.4830765795,-0.7019100531,0.066627331,-0.4263099935,-0.3392110755,-0.6825783929,0.5870303898,-1.0478210728,-1.1831383669,0.0381978616,0.4531019167,-0.4007571841,-0.0298129934,-0.5483655252,-0.1352054063,-1.353231403,-0.8317902176,-0.7833720047,0.1760893069,-1.2862797123,-0.3468495115,-0.8241684803,0.0196805769,-0.5385009845,-0.4736729418,-0.5965102995,-0.4870981849,-0.8245591138,-0.3379391012,-0.2187517005,-1.424216831,-0.6135933019,-0.9429879272,-0.1495052659,0.2070654101,0.323093592,-1.2932720898,0.1392483994,-0.8260091924,-0.1380589597,-1.5598283442,-0.3466307185,-1.3068555212,0.3074543488,0.5339785022,0.0057518321,0.1343369002,-0.7218317185,-0.7765818516,-0.9229685065,-0.9167707903,-0.6177594484,-0.443896504,-0.1796266741,-0.0179294404,-1.5456186491,-0.521614902,-0.6187533317,-1.3239233383,-0.3817141189,-1.5856479009,0.2203494771,-1.5880427698,0.0281978419,-0.0712255672,-0.4730818967,-0.7916559969,-0.4454846473,-0.0833387908,-0.1573112301,0.2692910984,-0.7640069836,-1.012472636,-0.3466174659,0.2283682872,-0.2884566925,0.3009197796,-1.0433951414,-1.2831111908,-0.4978808442,-0.9874067413,-0.5065136671,-1.1307109636,0.0733422304,-0.7513614105,0.1305105421,-1.6042319499,0.7934998511,-0.3810467318,-1.2360214782,-0.0030795404,-0.0550660182,-0.6063787958,-0.8976715888,-0.4719667413,0.1104295605,0.175513368,-0.1133433015,-0.8324537655,-0.6486091504,-0.7709439699,-0.5863991532,1.0298434222,-1.5343095734,-0.406206897,0.3735814206,-0.6477423502,0.2964031393,-0.3265730867,-0.3698534098,-0.9584770885,-1.4085699818,-1.1410896926,-0.4922662189,-0.898224301,-0.2456271066,-0.2644794111,-1.3079630842,-1.0292609957,-1.5852976004,0.2458532357,-0.6928201262,-0.9144371274,-0.6510265125,0.4561083697,-0.9030094178,-0.7608073677,-1.3638809865,0.2625616602,-0.1306570644,-0.2176289782,-0.0545148118,0.2800313722,0.2473983094,-0.9116342292,-0.9262273341,0.1676357317,-1.0166150184,-0.1752727332,-0.5072222256,-0.9464276746,-1.060968898,-0.3130862558,-0.2323668676,-1.1651257347,-1.2435528046,-0.5422151777,-0.0334969245,-0.448398867,-0.407250494,-0.4473127483,-0.3969273158,0.3081404632,0.0992677626,-0.3400485412,-0.5554950945,0.5838259011,0.994877148,-0.6478066342,-1.2830735061,-0.0760400051,-0.4230400521,-0.7726191234,-1.0532470896,-0.0495973482,-0.2372514108,-1.0943514346,-0.0436217663,0.0606067805,-0.610262251,0.4519736929,-2.9694471896,-1.7150379937,0.2993686061,-0.1704887692,0.4997444514,-0.0591886832,-0.1923942611,-0.8725911759,0.1833734128,0.2614758872,-0.7826093836,-1.4274439297,-0.8921048064,0.7175207013,0.2312559366,-0.3834057926,-0.7801178628,-1.6727587511,0.6534536093,-1.0531664596,-0.0925022876,0.5112102576,-0.423737319,0.0483518443,-0.258360109,-0.6230343426,-0.0685618028,-0.3731038102,-1.0760349809,-0.4493170385,-0.1461356733,-1.2682483033,-0.8069097064,0.7478522372,-2.8197517297,-1.0110823132,0.2612915591,-0.0572579022,0.0496153641,-1.0726885437,-0.787678544,-0.238422366,-0.3769220171,-0.8167171207,-0.3639584653,-0.3440543394,-0.772755535,-0.7517239939,-0.8162841553,-0.5226464771,-1.1976275987,-0.6270344058,-0.5325598621,0.1820231979,-1.2308320963,-0.7863305646,-1.7264642805,-1.3511122988,0.1846774601,0.2586171855,-0.4340573763,-0.2429865686,-0.570309396,-0.6909602044,0.2718900794,-1.424766118,-1.2584534123,0.2595865157,-0.6808479308,1.6480138177,-1.7297218085,-0.2860581294,0.3832027734,-0.6062837999,-0.7642300109,-0.8941446156,-0.3989503282,-1.1648425255,-0.050356214,0.7680999019,-0.3646876316,-0.0724559912,-1.1821013358,-0.3172864529,0.0843458073,-2.9499290935,-0.3314959857,-0.9150754509,0.288403372,-0.7149329704,0.1229186683,-1.2656532469,-0.3584781666,0.0683953828,0.8202909059,-1.0284677537,-0.7208266734,-0.3660479732,-0.183286962,0.3939459732,-0.4157043538,-0.0661768784,-2.5534115982,0.2993060937,-0.1897699355,-0.2092416552,-1.6680005646,0.2138615575,0.1308013971,-0.0243508346,0.0748690208,0.3070768141,-0.459014942,-1.1923248109,0.0901039122,-0.4419061313,-1.6300945987,-0.7229565272,-0.95248866,-0.92806028,-1.0915258076,-0.5963609177,0.0072763709,-0.9099443488,-0.26067133,-0.1487682236,-0.1236723557,-0.4079420225,-0.0793978526,0.2637275707,-0.3043783941,0.191342341,0.2714501863,-0.7949683344,0.4451640233,-0.4275288807,-2.7117238065,0.1895475337,0.4973641042,-0.7053089121,-0.5257086122,-0.472856676,-0.1182696971,-0.7937980986,0.2390949997,-1.0641115203,0.9053092032,-0.2720475175,-0.6523643463,0.2669938186,0.5312607527,-1.1394920796,0.0692901055,-2.7605008452,-0.7531220341,-0.0105600408,-0.5577219979,0.088636043,-0.5436608229,-0.6276482192,0.3330175311,-0.9497073744,0.4540312684,-1.3362764918,-0.0579981477,0.2458077681,-0.2311403022,-0.4455602792,-0.5253774239,0.0327433386,-2.536695156,0.2330056022,-1.28664525,-1.2450857108,0.4799710724,0.1552432379,-1.1847525002,0.1432010093,-0.4308775563,-1.2811812428,0.0437654554,-0.4463416651,-0.160967534,-0.7885021717,-0.7856844378,-0.5980550867,-0.5936230955,-0.7627535739,0.3548259857,0.0898680642,-1.0355883414,-0.4773145892,-0.4993396295,-0.1171759516,-0.7272441607,0.4974126663,-1.3627458331,0.5360345847,1.8966713488,-0.7919201478,-1.0353428788,-0.7749209705,-0.8203196726,-0.130927084,-1.2704022608,0.2612808031,-1.4388694467,-0.1869329977,-0.863808253,-1.1003264042,-0.6959220398,-0.5209948301,-0.3175242206,0.0943850449,-0.4486023007,0.4263148376,-1.0357318171,0.251777617,-0.2156310332,-0.5758456006,0.4693976549,-1.5051459505,0.4053889373,-1.0968977755,0.3353195436,-0.7044004875,-0.5441447565,-1.2131764522,-1.3852490656,-1.1234863394,-0.8583129157,-0.4569730706,0.4622063018,-1.5408625826,-0.9594692162,-0.7265856484,-0.4627997205,0.2702431598,0.3452601552,0.2012392221,-1.266310293,-1.2087294766,-0.344396957,-0.7384805256,-0.0235798646,0.1003970665,-1.2098288694,-0.432208848,0.0516520393,-1.0904951902,-0.6826382144,-0.9875956678,0.5377610162,0.2957182663,-0.1494315397,-1.3486016373,1.083693547,-1.3126182341,-1.1287004585,-0.8175750414,-0.4994065047,-0.5291729641,-1.1991767386,0.863816409,0.1483807996,-0.2933269341,0.7557491001,0.3535178575,0.4270162517,-0.6904553429,0.3558299846,-0.5147754006,-3.1249305982,-0.983935789,-0.7899452496,-0.7211454252,-0.8462815543,-1.9399102721,0.6849456105,0.7593742312,-0.6993889434,-0.2446602306,0.1843874942,0.0089722769,0.5675531852,0.0677117264,0.5557451771,-1.1808253074,-0.3155808025,-2.5052359678,0.0676078012,0.037517948,-1.1195779962,0.022274625,0.3381836673,0.3886267309,-0.0712438948,-0.6425764746,0.2545117366,-0.8002434057,-0.1240349972,-0.9155654975,-0.7757171461,-0.7768828915,-0.4386119791,-0.7825668395,-0.9738566479,-0.6938785036,-0.3588077274,-0.8450369682,0.307829738,-1.1849623782,-0.2402541783,-0.277078466,-0.4851030692,0.5042971473,-0.4433867411,0.4509830069,0.828140792,-1.1831383349,0.5661775419,-1.0301175746,-0.8749047473,-1.2883624973,-0.2992385686,0.2619955838,0.4411178648,0.4892940142,-1.2111074198,0.0281474635,-0.3255228732,0.2313356446,-0.351958063,-0.9184482428,0.2810564586,-1.1360803256,0.0036533182,-0.7440086514,-1.0117367358,-1.3075023849,-2.6211112471,-0.1748053359,0.0245747051,-0.9229753354,0.300356228,0.5046750238,-0.1873734645,-0.1851721942,-0.0880079201,-0.9872496412,-0.0819772954,-1.3410016285,-0.7931628778,-0.4715141116,0.3853126748,-0.0602315889,-0.2671898991,-2.6216309468,-0.8579321404,-0.3277447579,-0.5608629519,-1.2354780934,-0.7834399482,-0.597242083,0.0775378099,0.006934636,-1.1938597708,0.4255450988,0.2130763787,-0.0815557978,0.5389802544,-0.8837991085,-0.6758388301,0.1114048343,-2.1345604188,-0.0374204612,-0.4345164411,-0.6948711996,-0.312940728,-0.5370002761,0.3638981946,-0.3644164289,0.3940666009,-0.3414178821,-0.9672674414,-0.7508073464,-0.7426495457,0.1604334432,0.4619001696,-0.8230085307,-0.0520514831,-2.2915591924,-1.0660072235,-1.0428108123,-0.9418538481,0.5151868912,-0.8442070793,-0.643773366,-0.7075225601,-0.3427590597,-0.1458905542,-0.538103791,-0.0946165898,0.0503106313,-0.2137491396,-0.963085237,-0.4090272905,0.7157698761,-0.7051537501,-0.5142070977,-1.0744848914,-0.551982459,-0.950971565,0.0185486134,-0.0735696692,0.1392417129,0.4485817507,0.4374856783,0.309318733,-0.9090954128,-0.1144194007,-0.4097445816,-0.6626256202,-1.1705122771,0.1399261882,-1.1765745781,-1.0541404124,-0.2760080115,-1.1007683345,-0.1195406307,-1.371066056,-0.8595258004,-0.2517649524,0.0171938121,-0.2985449005,-1.1881870586,-1.1237031888,0.1825444807,-0.961901416,-1.1699210843,-0.4502569485,0.1789041855,-0.2476951037,-0.3661814156,-0.5975698619,-0.2207473415,-0.0744633056,-0.9845714657,0.0803294112,-0.3499463284,-0.2960945902,-0.1228932756,-0.9435384203,-0.3466354919,0.0398871558,-0.8264195793,-1.0925540703,-1.0021488759,-0.5037095165,-0.2853211558,-0.4981736932,-0.3119820942,0.5189643654,-0.2312369936,-1.3603328964,-0.601204995,-0.4729944077,-0.7981319841,-0.5623182319,0.3786875006,0.3467810087,-1.0193669273,-0.4116567226,-0.0347048178,-0.4462414559,-0.809354894,-1.6012185829,-0.3044971261,-0.52737673,-0.8790665777,0.1653293,-0.3965031459,-0.4579269238,-0.4583986281,0.6316403326,0.568418355,0.1742605671,-0.4803572978,-0.2091583885,-0.0919297136,0.3609856374,-0.4353738825,-0.5548903466,-3.333770276,0.1886518463,-0.3972792345,-0.5660467551,-0.4680504307,-0.8246243608,0.0483199765,-1.0272101317,-0.6955398191,-0.4674723599,0.4612609282,-0.1282379223,-0.9705669515,0.2492567542,-0.6112762574,-1.0146313688,0.6188983821,-1.1560394703,-0.988316486,0.0803465564,0.0270885249,0.0715545542,-1.1283031531,0.2323025037,-0.7372484781,0.1514114562,-1.1364341258,-0.0083210493,-0.7983098638,-1.3961939073,-0.8515932391,-0.153506983,-0.6760805886,-1.3173594518,-1.1859423127,-0.9609190871,-0.8995919676,0.1109928127,-0.4919204375,-1.3937580063,-0.2765016445,-0.3161355134,0.0277661087,-1.4154804685,-0.0802260195,-0.0221577215,-0.8840971049,-0.5563330929,0.3624081468,-1.2891100067,-1.0230667165,0.2019969968,-0.9948396851,-0.2055761161,-0.8247044188,-0.3202805286,-0.9702370044,0.2824264414,-0.5209546295,0.3551286689,-0.8226875454,0.2803073757,0.0386383334,0.3875374355,-0.0799077243,0.3157902329,-0.6813232793,-0.3638539109,-2.4948788638,-1.0408937717,-0.5232992304,0.224738803,-0.5408466829,-1.4233265856,0.0931347956,-0.1507677836,-0.4537053128,-1.114144936,0.7248097445,0.232847917,-0.6214176766,-0.2727940484,-0.98440028,0.0569305129,0.25342395,-2.2063332244,-1.0224510446,0.211561414,-1.2625022021,0.4715800545,-0.1294531795,0.4162600395,-1.0951238006,-0.4237805624,0.4802777417,-1.2450061916,0.1912446105,-0.5743273733,-0.9085714814,1.1377958568,-0.7584949569,-0.4653687584,-1.7056920476,-0.958253186,-1.2136855778,-0.0768258835,0.2795111909,0.1346271117,-0.9458013197,-0.4064138345,0.1647848168,-1.1388076615,0.1125177952,-1.0968862689,-0.9072671455,-1.0494114703,0.6069165455,-0.1187821715,-0.7201758502,-1.7598353045,0.041521195,-0.6713288321,-1.0131975883,0.4673899732,0.3555298544,-0.5792656819,-1.3287345366,-0.8159860769,-0.6343367704,0.1996044727,-0.5893216001,-0.571836761,0.1043324271,-0.8726434922,0.4989252535,-1.1087691364,-2.3300483379,0.0615309582,-0.0652793381,-0.5796233371,-0.9812601794,0.2876417375,1.3284682282,-0.9767095463,-0.3853464572,-1.1054533921,0.262715746,-0.2380395185,1.3922934877,0.660526259,-1.1802095168,-1.6410828646,0.0439615433,-3.5490080569,0.1493108328,0.2144806513,-0.7340572524,-0.9189016582,0.1586938394,0.1404278496,-0.5298218917,-0.1094786008,-1.0573403387,-0.0877399778,-1.2183181203,-0.1607747197,-0.888978796,0.2743147863,0.1342104932,-1.4294574386,-2.0368997807,-0.2017535622,-0.1683053949,0.2743897687,-0.7261816326,-0.3125790643,-1.2984190297,-0.6554198326,-0.6057258587,-0.0557641449,-0.8692674448,-1.2611189925,-0.6064068141,-0.1273062186,0.0308298792,-0.9836785158,-1.086930252,-0.6213672919,0.0662273103,-0.5319127271,0.2395053228,-0.442420918,-0.0117257976,-1.4241733181,-1.3249860057,-1.5614556597
   -1.7151883583,-0.8099279868,-1.124738178,-0.6220673691,-1.2744131534,-1.1233958785,-0.165818419,-0.1498332604,-0.2427268255,0.3188208104,-1.2462910059,0.0967024088,-0.5687989414,0.1821509712,-1.1419271401,-0.3390800972,0.2673654967,-1.3288558604,-0.2635327641,-0.9824834809,-1.8327259295,0.4159134159,0.3428209964,-0.8543478489,-0.2562427285,-1.1593793803,-1.3629211907,-0.584643656,-1.2695464571,-0.7654479004,-1.0354831996,-0.6817210476,0.3625628124,-0.1513492312,-2.1619127145,-0.7261370062,-1.3283579786,0.2455362298,-0.8915484331,0.4099740503,0.0376142024,-0.9625080348,-0.86741167,0.0488990801,-0.2716008958,0.3234156817,-0.135563878,0.1367529759,-0.3228069047,-0.447052818,-1.2647684324,-0.9778046249,-0.9318932469,0.7048729886,-1.109823444,-1.2417454556,-0.9943926914,-0.027144541,-0.5098956735,-1.4653383792,-0.3451468919,-1.2011527968,0.444778552,-0.8274045147,0.0997213332,-0.9509997968,0.459678542,-0.9367542385,0.3892189188,0.2459542719,0.0896304395,-0.2091718831,0.2500580425,-0.771481353,-1.0381384157,-0.260581931,-1.5232013606,0.1678400367,-0.1147771258,0.3517290417,-0.0249876089,-0.7623016219,-0.995948153,-1.3610081019,0.4522803599,-0.9152168709,-1.2428331917,-0.2361732284,-1.4801827727,0.0891447067,-1.1233003084,-0.5692944774,-1.2333731687,0.0696229987,-0.1403213501,-0.958522056,-0.1997625957,-0.0381186539,-0.9014511248,0.1614925659,-0.4576879117,-0.5367897102,-0.6649488099,-0.8766720629,-0.1899919755,0.0770570137,-0.7272915158,-0.28671925,-0.8959809369,-1.0621883308,-0.9900690956,-0.3330193619,-1.1800839128,0.3074898532,-0.610883324,-1.6524281613,0.2620802853,-0.7254954121,0.1664301052,0.2656056346,-1.0834974437,0.6093280279,-1.2941027951,0.6415821133,0.0015116235,0.2096521161,-0.1117733906,-2.8254920951,-0.5814406357,-0.346015376,-1.4193481933,0.0565946209,-1.4652773677,-1.2971130071,-0.1307669886,-0.5104641909,-1.7698381845,-1.0610778861,0.2107828488,-0.6107988436,-0.3106608364,-0.3900664839,0.175455054,-0.9740889528,0.2535531318,0.3388311501,-1.0432219221,-0.4752604918,-0.7470422846,-0.0738182132,-0.5533565893,-0.3327693069,-0.3033702867,-0.6087392785,-0.3282765652,0.3888991346,0.0123792079,0.2185925252,-0.8313469536,-1.0456494187,-0.1831338398,-1.1920406217,0.323852934,-0.5518540066,-0.4930249102,-0.0869423154,-1.4081519718,-0.4090906551,-1.0446660084,-0.4133753865,-0.0806084606,-0.3479318457,0.0996308625,-0.0458275733,-0.4540640386,-1.1377336521,-1.1485955215,-0.5572375214,-0.7390588458,0.1781432783,-1.0987699265,-0.047000843,-0.0588156973,-0.4994408191,-0.4087881986,0.2914328535,0.171085422,0.3749374539,-1.0913364391,-0.1700793535,-1.344423946,-0.8575444271,0.0681327815,-0.3792340238,0.9517118937,-3.0387438457,-0.6441652365,-0.5150227842,-0.1176668217,0.2335318598,0.3198385104,-0.7431073608,-0.8305666285,0.3197375589,-0.4017280632,-0.1629466435,-0.8539888489,-0.6619983053,0.0094496378,-0.0481500566,0.0602878685,0.1642557926,-3.473183109,-0.3265864215,-0.9542635327,-1.0636230136,0.1865688314,-0.618771996,-0.8919179311,-0.7359013338,-0.1429634597,0.2320787528,0.0004808476,-0.4321582404,-1.3784513493,-1.347747778,-1.2795770266,0.364171138,-0.7106587352,0.4678307158,-0.0010352877,-0.8337162581,-0.2159571424,0.0429361779,0.1776375432,-0.4130894247,-0.0774316166,-1.0041558411,-0.7612193493,-0.1137586737,-0.6873786434,-0.1927543366,-0.6843098415,-1.1167568315,-0.0893086989,-0.1222629603,-1.875240262,0.3273573698,-1.267077014,-1.497050338,-0.0518226989,-0.0453076604,-0.3569132425,0.2832607008,-1.369805887,-1.0531069477,-1.3138876982,0.5068084969,0.4830326969,0.1425896863,-1.4315122494,0.3316878737,-0.3251641145,-2.2281426408,-0.0505670277,-0.7514748286,0.4286733843,0.2017726929,-0.1665215522,-1.1219390536,-0.4537020918,-0.1036178704,-0.7382806423,-0.515849856,-0.9605640159,-1.0213226967,-0.5873826975,0.0745284435,-0.119083836,-1.011720054,-2.0504433574,-1.2953020579,-1.204646549,0.4292228857,-0.5129859777,-1.9816091032,-0.8133210529,-0.2129136721,-1.4576893946,0.0541171942,-0.1222630463,-0.4934433291,-0.5796703954,0.7341777478,-0.9889296926,-0.2308686055,-0.2395909787,0.1344430727,-0.4410438141,-1.0241580232,-0.6995529421,-0.6981961875,-1.2966667826,0.189185049,-0.0454274316,-0.20602592,0.9439700721,1.0140796448,0.741496277,0.2771822758,0.1900895194,-0.9501127267,-1.1595932212,-0.0564546048,-2.4900919098,-0.3757409468,-0.153812358,-0.623239445,-1.125446563,-0.6657390673,0.3260623639,-1.2851231425,-0.855216139,-0.7458871952,-1.3451427463,-0.3056701329,-0.4267596069,-0.741081391,-1.2136786006,-0.7928515804,-0.0102687292,0.4534208706,-0.6984883167,0.3318287154,0.2104533812,-0.4365572367,-0.419112098,-1.2657229137,1.4455291733,-0.0979809517,0.4637736516,-1.2642837584,-0.52659193,0.2908587682,-1.0192548585,0.3493692904,0.4011562026,-2.3613189787,-3.1193946855,-0.8234041741,0.3855944522,-0.9196890149,-0.1544064911,-0.9397641416,0.2366820356,-1.232613467,-0.5440085907,-0.8157631059,-1.2941969975,-0.1654397013,-1.3074458534,-0.8571706375,0.310708892,-0.1817433376,-1.0491945863,0.1429441479,-0.6916420988,-0.8815029939,0.5009444889,-0.6234444995,-1.4548369735,0.096334911,0.0671277236,0.0501257819,-0.4713479722,0.0216563272,0.167361633,-1.3242164312,-0.1422170222,-0.9305099458,-0.8935956152,0.3633766891,-0.8455187519,-0.393581231,-1.0480030135,0.1013632688,0.0490606223,-0.9928908097,-0.4993229919,0.3001280237,0.4357893483,-0.7877735939,0.7282712048,-0.6889130447,0.4807262091,0.197622076,-0.4581747555,-1.0017174835,0.0722844367,-2.8943791512,0.8552324239,-0.6614959912,0.5680358346,-0.3020466271,-0.5011310692,0.4200297956,-0.9141972295,0.6002999405,-0.4171926891,0.598997013,-0.8951612151,-0.5929807234,-0.4963539519,-0.0620261262,-1.0262723507,-0.1017252185,-3.2024899708,0.446462605,-0.7995625322,-1.3970003995,0.2131617873,0.0827985384,-0.0864536757,-0.9310154179,-0.0570600522,-0.8892566258,-0.5014024049,-0.5478985643,-0.7570184084,0.3759808034,-1.1987898499,0.2356197175,0.0050300489,-1.7535652873,-0.4442900026,0.2098333991,0.4582731809,-0.0338665399,-0.295284225,-0.7508001715,-1.0391979689,-0.9467711924,-0.962469017,-0.5927820961,-0.758058461,-1.0795508111,-1.1330179568,-0.5040116739,-1.0358887372,0.2408021474,-0.8133155559,0.2114638607,-0.2379090672,0.0117998646,-1.6593368301,0.5224343394,-0.6814695701,0.0163683154,-0.3737364924,0.374376058,-1.0450437416,-1.2453476139,0.0349896503,-1.267540666,-0.6167839981,-0.0106731208,-0.8773106653,-0.6008036836,-0.6712047288,-0.3591308133,-1.0471060828,-1.0306142611,-0.8128893536,-0.631095328,-1.558148876,-0.001745814,0.3495475673,-1.2480622532,-0.5208833872,-0.0004285921,-0.2993696565,-0.0383021266,-0.4318886839,-0.0252819824,0.2597355783,-0.2532430693,-0.7289910929,0.0622600707,-0.5123257174,-0.8771682655,0.2488383541,-0.1660143611,-1.2859788127,-0.848038953,0.1680938997,-0.4697549848,-0.3924334153,-0.7607984276,-0.1003006579,0.1373782856,-0.4021604719,-2.0188387059,-0.1967481274,0.1637972394,-1.2084887076,-0.1453520401,0.0288836151,-0.4511919056,-0.7720567348,-1.1077037803,0.3975993353,0.1965856444,-0.9485573703,-0.0791192173,-0.3484647568,-0.9743047314,-0.5786469844,-0.8540434733,-0.688189905,-0.6526670209,-0.4172767424,-0.0637766613,0.2217911525,-1.2366800721,-1.0060967768,-0.9151616619,-0.0061573955,-0.8734800845,-1.2337795861,-0.5755984481,-0.0285844328,0.1020635885,0.118650808,-0.2476152479,-0.1207526905,-2.814998728,-0.5731937902,0.1319415985,-0.5787072382,-0.6073652176,-0.4971514055,-0.9642810903,-0.3079082201,-0.1776263763,-0.7990291625,-0.6954880067,-0.7962213406,-1.2256652279,-0.7455815733,-0.2600305084,-0.0636087921,-0.5589399145,-0.0674862289,-1.0439054606,-0.2820534537,-1.1404251261,0.3143788661,-0.8974434577,-1.0402212233,-0.6092763832,-0.5218358538,-0.5118545667,-0.9626678303,-0.4013393894,0.0905719912,-0.9006363437,-1.0254488863,0.1732358191,-0.6021326974,-0.5506976918,-1.1978289082,-0.2740161604,-0.8207522506,0.0564431245,-0.3654760943,-1.0318861421,0.3624868862,0.115136252,0.0383175627,-0.1724282654,0.1988631906,0.0157285583,-1.3661329038,-0.0222094905,-0.316682395,-0.9429503533,-1.6091636483,0.0889594545,-0.016233995,-0.988535039,-0.4868380779,-1.4535398446,0.4053847415,-0.4381441958,-0.2053838053,-0.8508920737,-1.3955925147,-0.2246126583,-1.0029938378,-0.0792500135,-0.6693911418,-0.2917023947,-1.151888707,-0.6197858783,-0.6894037347,-0.6885220099,-0.2034803031,-1.1523257006,-0.9719308177,0.1387403862,-0.2260697918,-1.1375280934,-0.6148948447,0.3078398757,-0.598993323,-1.1459388294,0.3644891507,-0.8099313419,-0.8297490613,0.2066188721,-0.4315506533,-0.4055354505,-0.3772395655,-0.1964228975,-1.0589302791,0.2229582274,1.3623748191,-1.127566323,0.150664604,0.1110553373,-1.2410503536,-1.1578802915,0.6322833144,0.5536585159,-0.0596138121,-0.2983201773,-1.3360299141,-2.4264863146,0.3920184229,0.2006398655,-0.5098688833,-1.0673473678,-1.3974777219,-1.1222890314,-0.2689637569,-0.6111763002,-0.6812246974,0.1108541788,-0.0984334818,-0.8432103588,-1.2654189691,0.4809904894,-0.6848326522,-0.064860692,-1.5520266501,-0.1488095063,-0.7415919007,0.2998525103,-0.7181097728,-0.2500771083,-0.7141562759,-0.0211857547,-0.0110868002,-0.1368948086,-1.1046860644,-0.5794681848,0.1310427658,-1.3123963299,-0.6504362057,-0.0783824872,-0.8067437483,-1.9252107988,0.0390334659,0.5135927562,-1.1808747111,-0.4902217639,-1.396726885,-0.2784293435,0.4012466194,-0.0222224888,-0.8503034603,-0.6635633549,-0.4232068852,-0.0842551994,-0.4298389011,0.2123401107,-0.5925813959,-0.300114244,-3.0472909929,-0.3559652312,-0.9693625652,-1.2855449325,-0.8687602803,-0.3201867847,-1.1028093055,-0.5218204404,0.0894724411,-1.3221301943,-0.653224454,1.8061580868,-0.1712229368,-0.1695143672,-0.9023634623,-1.0497405369,-0.1866449911,0.0968732477,-0.7723494133,0.4123051393,-0.0585124679,-0.5876493791,-1.4989312384,0.3534971908,-1.1384143619,-1.1048989284,0.2870405505,-1.283993882,0.3338969792,-1.1793196461,-0.4383425988,-1.0794717034,-0.0225113433,-0.6637637307,-0.2294024383,-0.4316626218,-0.9839960487,0.0662254212,0.0409737444,0.071105027,0.434225915,-1.0626935048,-1.2842292785,-0.8208988967,0.5880026968,0.548838434,0.2581689209,-0.2818670821,-1.0880909883,-0.9262649567,-0.1217585647,-2.4221610954,-0.3761094294,-0.3322449156,-0.0846921979,-0.2747206243,-1.2435887371,-0.7167074604,-0.6347913877,-0.4871594445,0.061694538,-0.191512458,-0.5112363518,-0.5544897086,0.0716594313,-0.4571994431,-1.2529867852,-1.2676535571,-0.250648589,0.1901872488,-1.4093573204,-1.4298445828,-0.2299660716,-0.4779195945,-0.7201237951,-1.1724940454,-0.750806586,-0.1350579565,-0.6820920672,-0.3662594992,-0.0591634698,0.5294352458,-0.1325081792,-0.3719151258,0.3685130437,-1.0839067889,0.6428762531,-0.5060568377,-0.2356245458,0.280366322,-0.3403388294,-0.9597165878,-1.110393892,-0.0199371057,-1.2482492023,0.5775994994,0.8181765387,-0.857202252,-0.3002900195,-1.11840149,-0.9170239951,-0.631664761,-1.780400452,-0.0666647081,-0.8837294164,-0.6391554546,-0.4542555657,-1.297578298,0.348400651,-0.8698236203,0.1388652351,0.0181931165,-0.966207497,-0.6368084238,-0.0119645213,-0.5393652516,-0.3089206833,-0.9412254104,1.3326053873,-2.565984603,-0.8362429637,0.4818585108,0.2689164144,-0.3033836071,-0.4858394621,0.5983953918,0.4493908514,0.2443427537,-0.184475692,-0.8757924516,0.2084368061,-0.0257163653,-0.6204042023,-0.7670677101,-0.6866538716,-0.1360884724,-3.402093501,0.1748532712,-0.7739434911,-0.2533807795,-0.7269468941,-1.5458797476,-0.2152536865,0.2794467103,-0.5517718275,-1.1431103745,0.7568743624,-0.1098890947,-1.0277774851,-0.4916602052,0.16597424,-0.5614352468,-0.0288837318,-1.5492537917,-0.514652712,-0.7998766472,-1.5517445605,-0.9147871815,0.0294837908,-1.0990494021,0.3229893122,-0.0410888857,0.0598516111,-0.4000594929,-0.9161293023,0.3554594266,-0.983821918,-0.2767514923,0.4475944234,0.2543301635,-1.8142406075,0.206227034,-1.0589213226,0.5063677831,0.2624526384,-0.0967698867,-1.3545369076,-0.8680073976,-1.0594932914,-0.7983383944,0.0567350524,-0.0303202852,-0.5176939799,0.1039810737,0.0296300646,0.3294707733,-0.0693739463,-2.9672546513,-1.289466767,0.0596990945,-0.7547087904,-0.8004726753,-0.5817193165,0.3517268063,0.4914113822,-0.1941110123,-0.5641255084,-0.0570028427,-1.4172096902,-1.3448837861,0.3135529891,-1.1698088224,0.2503900116,-0.9479541835,-0.5313639135,0.3179891958,-0.4154839599,-0.2476999858,-0.4619739021,-0.8109182804,-1.0664586675,-0.661958081,-0.5349073623,-1.0050062177,-0.6604092807,-0.17551221,-1.3901384253,-0.1364434198,-0.205735012,-0.3938874657,-0.2910169184,-1.1686402746,0.2745782257,0.7399003403,-0.5301126977,-0.8357045024,-0.5937988048,-0.2391906163,-0.5475390203,0.0024272708,-0.4751527016,0.0060834243,-0.1844696994,-0.5504630071,-0.3325670986,0.2539549099,-1.3027853446,0.6912009247,-2.5270251238,0.4760260662,-0.0140805383,-0.0335022705,0.092127775,-0.2528879078,-0.8309560629,-0.6261441522,-0.4922068727,0.1853262446,0.4310887079,-0.3375019612,-0.6718848962,-0.4308933934,-0.3861157324,-0.2906903634,0.1588379356,-3.3830524489,0.4565758817,0.4005093556,-0.4857487606,0.0173215904,-0.5676074071,-0.748023515,-0.2728989712,0.3472261029,-1.0612232932,-0.5225033432,-0.6609769161,0.0128985315,-0.2574256575,0.4172128831,-1.3105160421,-1.0545423284,-2.7944775669,-0.3987177947,-0.6808471332,-0.3816927854,-0.1413644845,0.1881657868,-0.3946439315,0.0381881354,-0.745421991,-0.3644585754,0.1803745299,-0.588576684,-0.9097740575,0.2225027478,-0.4998111679,-0.7455539182,-1.0562872491,-0.2447427982,-0.4731883096,-0.2965028476,0.6125352196,-0.9915788566,-1.7361794821,-1.8976187351,0.0219388044,-1.0283836583,-1.281967359,-1.4368014485,-0.0051715728,-0.1678545069,-0.7374306468,-0.4388334331,-0.6492564264,-0.2590550932,0.112758093,-0.0468297417,0.4891798643,-0.4949415815,0.2557308695,-0.2159866936,-0.0967433873,-0.1342348364,-0.6674470309,-0.0817534892,-0.5491440172,0.7620196029,-0.8653370001,0.1189606807,-0.1398097985,-1.2779615837,-0.9478295711,-2.8072836615,-1.028958,-1.5567818941,0.35419489,-0.4043622932,0.0784406297,-0.339780171,-0.377976272,-0.1574453475,-2.1409246204,0.1086261647,-0.8073086606,-0.1653961046,0.2302100312,-1.1449008962,-0.6056342068,-1.3107706634,-0.3830927274,0.4260516475,0.427066486,-0.6159750961,0.1176928608,-0.7229055771,-0.7657888144,0.4725788144,-0.2554488659,0.0533264129,-0.3096385482,-0.6370837469,-0.81159451,-1.8363531816,-1.0013810436,-0.7006107904,-0.7794224504,-3.2197849137,-0.0208445741,-0.4109788224,-0.0648822911,0.2417922818,-0.2211103995,-0.468460055,0.0931882051,-1.030239454,0.0505434137,-0.0701334072,-1.1094455298,-0.9777602727,-0.8183224636,-1.1325466332,-0.8818483144,0.1759474162,-0.7631081518,-1.2451285698,0.1641787063,-0.6133389663,-0.5591312526,-1.0338505691,0.509978846,-0.7553300915,0.2273694642,0.507675967,-0.3819121443,-0.4995943423,0.2821193469,0.1007105967,0.1941126545,0.1075712902,-1.0566756031,-2.0877114071,-0.7055834674,1.4039295377,-0.8703363444,-0.742588961,-0.1204105946,-1.2188626716,-1.1139182508,-0.87333864,-0.1913409879,0.3174473019,-0.5354666977,-0.6010995393,0.1734191127,-1.2121003727,0.319143901,0.2172163134,-1.7869254484,-0.8683205846,-0.7905334213,0.3813819302,-1.4253728118,-0.9160486705,0.3903385077,-0.8195931726,-0.3518676962,-1.2258219743,0.3185623959,-1.0042012578,-0.3434302152,0.2708003975,0.5133109406,-0.3053797275,-0.1421841052,-1.5099103675,-1.4006735096,-0.9846416055,-1.1955510901,-0.8946806606,-0.3183348339,-1.1664469057,0.2282285574,-0.4848111433,-0.4862148836,-1.2904525664,-0.2809196755,0.3618749578,-0.2201461328,-1.1916414809,-1.1916003424,0.6823746086,0.2169754123,-0.452443039,0.1840594107,-1.1570718144,-0.0841733961,-1.3045353921,-0.3649163061,-1.6325728052,-0.6332235262,-1.7281502406,0.0144910138,-1.5355446219,-0.3607589865,-0.655959957,0.3043260254,-0.2120061236,-0.4011691284,-0.2217306247,-0.0473249749,0.1635592275,-1.2927176201,-0.4219376363,-0.2089558981,-0.0820237443,0.2531137005,-1.2551133799,-0.7621707964,0.1505315924,-1.1686063756,-0.0205973617,-0.5867510698,-1.3429569343,-0.541033853,-1.5585828229,-0.5106557663,-0.9403706467,0.0722242483,0.0069411618,-0.3888461442,-0.9760362456,0.3544209676,-0.3781715837,-1.347723894,-0.1262033353,0.1254696975,-1.1326568598,0.1209925608,-0.0678094534,-0.0190331547,-1.4055264183,-0.1321276684,-1.0647772069,-0.9858899463,-0.4538321675,-0.2507614544,0.0352232726,-0.7968136666,-0.7463493924,-0.0559888349,-0.3984049996,-0.8682986468,-1.0139720188,0.2038272875,-1.175952967,0.0907807629,-0.8094270251,-0.9901929315,-0.5028857584,-0.5044164907,0.1585524457,-1.2663002143,-0.8912870733,0.3905843769,0.3170579491,-0.2815766477,0.4922298984,-0.3736579006,-0.8509469566,-0.310497517,0.14210703,-0.0884644264,0.5433796446,0.0224029624,-0.6186953265,-0.3243735766,-3.2791346989,-0.8884460244,-1.0929221715,-0.581788176,0.2377342024,-1.9722799799,-0.9415569567,-0.7885191648,-0.6414156661,-0.196710363,-0.959517984,0.5666793292,-0.0894500989,-0.0465850294,-0.613409209,-0.6370886908,-0.6669375378,0.4106649692,-0.1858799792,-1.1740343228,-1.0433380816,-0.3402781316,0.2337223765,-0.1722880137,-0.5698194748,-0.2635642403,-0.5913435022,-0.114573223,-1.9080963523,0.3166147422,-0.4081947184,-0.4936973777,0.321454332,0.0873976615,-1.5524273895,-0.9087701483,-0.371818205,0.1836030566,-1.4242645621,-1.4361433483,-0.8317615885,0.4701294211,-0.7091805741,-1.1500341919,-0.7879898108,0.216641512,-1.3845458411,-0.1159173807,0.2873435862,-1.4540182203,0.1364635033,-0.3471487728,-1.032309728,-0.7040857784,0.5763470855,0.0620664985,-0.2820206842,-0.409096868,-1.1607383167,-0.5485881957,-0.4465381224,0.3258194094,0.2566152551,-0.633061296,-1.1631256777,-0.4177855447,-0.5845803887,-0.1715142821,-2.0762007773,-0.1572561873,0.3293060832,-0.2999094917,-0.8855785169,-0.0826648775,-0.5331637109,0.1933595343,-1.0561920702,-1.5984100717,-0.7645770508,0.1803439044,-0.3022589777,-0.4106162952,-0.9693494384,-0.6953438974,-0.4103532375,-1.6134267139,-0.6098892603,-0.4885719757,-0.1694913935,-0.2879645993,-0.4248804363,-0.7436919519,-0.796785045,-1.0943034531,0.019221866,0.9267918363,-0.04124241,1.5550114936,0.4958181628,-0.4507673745,-0.7754270075,0.1632537297,-2.9297695851,0.3374921215,0.0786816235,-1.0603455948,-0.9753887399,0.5537255501,0.3730556434,-1.1808925101,-0.443230026,-0.1657922014,-0.6648858188,-0.655745388,0.512838555,-1.1181803459,-1.2217991649,-1.1180561647,-0.4366096933,-0.3768739834,-0.0827855477,0.2327973228,0.0908483875,0.212855284,-0.6428567948,-0.2897040582,-1.019848506,-1.100979589,-1.2465252646,-1.1870734732,0.6399860813,0.3287937217,-0.565088123,-1.1834776791,-0.8085245466,-0.233145993,-2.5096863412,-1.1484137261,-1.2902468185,-0.4884650239,0.23388182,-1.4050489291,-0.205134424,-0.8075547349,0.223007286,-1.2658726971,-0.1104434067,-1.4802157919,-0.9196925321,-0.2290461671,-0.3808959098,-0.067894297,0.3790048471,-0.9378816552,0.3309052556,-0.9691488524,0.3308819243,-0.2153103683,-1.0646151637,0.0281183553,0.3861803048,-0.6217320656,-0.494137164,-0.8978665354,-0.0015715238,-0.7410406325,-0.3284688168,-1.2679107373,0.2595976691,-1.3559070962,-1.7538847341,0.6060199204,-0.5890769994,-1.0880008514,-0.7682376534,-1.285534235,0.4823340885,-1.0585951495,-0.0832438012,0.1455732869,0.5534374951,0.8915470742,-0.8145209411,-0.1850025131,0.2499738092,-0.2690703252,-0.3345996243,-1.7861072144,-0.1367589009,0.2598826174,0.3644552289,-1.0915666295,-1.238635955,-0.5896766296,-0.0491263837,0.5164143562,-0.6990059273,-0.3818026219,-0.072621911,-0.3414309376,-0.3784508065,-0.9526151115,0.4320539623,0.1995289143,-2.7218841467,-1.0437560406,-0.2388588668,-0.1732756711,-0.1663719346,-1.4431355122,0.2028284238,-0.3594023364,-0.4002936852,-0.2653735142,-0.8517728476,-0.3620693393,-0.739782109,-0.6286007275,-0.0256767018,-0.2335789223,-1.0545547926,-0.1568778155,0.2994018741,-0.0427013512,-0.315550433,0.2985028104,-1.1310793038,-0.8935183429,-1.0810556762,-1.4276998288,1.5979884739,-1.3246386557,-0.6060591812,-0.9236458044,-0.388659673,-1.2820686739,-0.3352855881,-0.0444879507,-1.0041745173,-1.2433462528,0.127547125,-0.3475787879,-0.021183672,0.1625794012,-0.4608650117,-0.5931205394,-0.3744693171,-1.2170525622,-0.5035580669,-0.2666296082,-0.7176433344,-0.0995719135,0.0863572622,-0.6741601571,0.0066296956,-1.4279338975,0.2710839224,-0.3874199281,-0.924276604,-0.0066861826,-0.6320599305,0.1771256926,-1.3170149134,-0.4174448641,0.4836245379,-0.4094428616,-0.5934274156,-0.9642720573,-0.9263409924,-1.1152622774,0.0086067007,0.0308203566,-1.1855169864,-0.5147861258,-0.1877922821,-1.3009872044,0.0390112279,-0.4962295353,-1.7761764095,0.2165715929,0.3316797632,-0.7067985753,0.7812334442,1.5088048792,-0.3960566655,-1.2880994661,-0.166040597,-0.8226209855,-0.3083048497,-1.779019183,1.2309859153,0.3622005698,-1.4909133158,0.4018395296,-0.0982672348,0.897583223,-1.4190872387,0.9761488453,0.322159222,-0.9890531112,-0.1871119662,-1.1256509724,0.2578897926,-0.1441354643,-0.6095049444,-0.7081755837,-2.7620457512,-0.0085068317,-1.2367975222,-1.7911231659,-0.9544747932,-0.0679595394,0.1614642932,1.4706495722,-0.0381604301,0.5326469041,0.009884941,0.0356028461,-0.4659981545,-0.5438004247,0.3840015105,-0.1462972841,-1.3173554217,-1.0904468982,0.4045175547,-0.5307235442,-0.64286412,-0.6789225999,-0.5427331473,-0.7358142132,-0.0053253999,0.4374168061,-0.7938914492,-0.1289608218,-0.6688075483,-1.2440580278,0.1787697886,0.4220144355,0.3838953149,-0.915292976,-2.202305131,0.0774342978,-0.5246552058,-0.126386392,-0.0123215595,-0.2880749158,0.2321425145,0.1210307668,-0.6284062234,-0.2642574447,-0.4386740743,-0.5268374553,-0.3194343132,-0.8640969509,-1.2042657066,0.4225673863,0.5020877679,-2.9648568605,0.436419923,0.0790099677,-1.008055239,-0.6673364884,-0.9834516866,0.1975098543,-1.2518143926,-1.0686996733,-0.143574426,0.5109903994,-0.2522401428,-0.3078749779,0.8934452557,-0.2285891933,-0.941244815,-0.257593677,-1.9049756125,-0.1188594977,0.1101275073,-0.3430577407,-0.4395405276,-0.9336207265,-1.1292690283,-1.0694818449,-0.0638532375,-1.2690668706,0.42729359,-0.8817290103,0.0714508359,-0.4687745887,-0.9127660382,0.4300975104,0.2525789604,-2.3656766536,-0.1017187281,-0.8660417371,-0.761133006,-1.0238817099,-1.4267489757,-0.9936321802,-0.0063564836,-0.7774153448,-1.3189181679,0.2639787348,-0.7834404474,-1.3355783229,-1.4563016162,0.3950991044,0.3513771461,-0.3577729927,-0.1055414164,0.3612638564,-0.1607753663,-0.9817818479,-0.2939693439,-0.6284096815,-0.0920202529,0.1007700646,-0.0784685192,0.3167905822,0.6557596214,-0.2550842988,-0.3252061947,0.1199205655,-0.9624464685,-0.6563057683,0.0173901924,-2.5074672676,-0.4359901177,-0.3733335233,-1.3718096946,-1.2013424431,-1.0736537264,-1.2223253277,-0.8444342178,-0.9433124511,-0.5457110312,0.4292231261,1.6288152765,-0.4078844885,-0.0996047376,-0.6589848248,-1.2586456122,0.6456334674,-0.2790069289,-1.3479752348,-0.8920937947,-0.7383438161,-0.9210753432,-1.4511388573,-0.1764903244,0.4967621143,0.2911785262,-0.2674326762,0.8896843657,-0.6106438692,0.7986592257,-0.8183865627,0.446595298,-0.3558065276,-0.3627448622,-2.1123845989,-0.2466088562,-0.4326094837,-1.1557279408,0.1168033209,-1.1535408,-0.3701989849,0.3232879218,-0.6327978456,-0.865560462,-1.0530050259,0.143762837,-1.0374955258,-0.9010029679,-0.5333394245,-0.6883532797,0.7156050564,-0.4869571189,0.2143598376,-0.686957596,-0.3531048277,0.32048762,-0.8995032211,-0.6015139154,0.0765576391,-1.5437423148,-1.1450303424,-0.8179959307,0.5929296806,-0.9770904023,-1.1325960152,-1.5882239501,-0.5049467607,-0.8797605241,-0.1658423039,-1.2294659382,-0.1809710087,-0.6260621217,-0.4811044715,-0.4161938417,-0.2906031607,-0.9173887035,-0.8120681006,-0.4881286106,-0.3460591825,-0.7755744455,-0.6240176763,0.1413622666,-0.3451336814,-0.0322834763,-0.7469566037,0.0660722456,-0.5387562241,-1.247582187,0.4531733566,0.820187271,-0.5252978267,-0.6441723677,0.6186762808,-1.0172849523,-1.1238155415,-0.2395421951,-0.3912386128,-1.2789083744,-0.7485708141,-0.3945800379,-0.1064502445,0.2362054188,-2.7529005174,-0.4044474437,-0.6645565466,0.3190901386,-1.0385387459,1.7209781829,-0.0325952558,-0.5620406827,0.4981195502,-0.808020317,-0.5189844337,-0.0485765162,-0.4771179838,-0.7860012833,-0.4705287977,-0.7714187846,0.0008762072,-3.1848825884,-0.7399774469,-0.9870359116,0.4250417582,-0.9866438535,-1.2273983496,0.1946236528,0.2993389759,-0.2886181344,-0.0192246396,-0.4659501769,-0.1703016621,0.4199312334,-0.9493714673,-0.134908344,-0.2522868017,0.3010072257,-3.0459340611,-0.5951787874,-1.078431174,-0.3495755646,-1.2873577739,-0.3081181777,-0.5055887728,-1.0452874115,-0.0145020242,-0.2492326095,-0.538218705,-0.9856240822,-0.19651452,-0.8346534055,-1.0993341627,0.1599150737,-0.1525384822,-0.5054755743,0.0700708067,0.2481714418,-1.2053670251,-1.3496700328,-0.4772654033,0.2945968142,-0.7715896463,0.4423523328,-0.1492206723,0.6667507131,0.2954096612,-0.6533572504,-0.3644643987,-0.1239107218,-0.8335366768,0.3732197975,-1.7154372074,-0.0538129698,-0.8093399759,-0.3400666246,-0.1775503548,-0.0930166395,-0.7089915216,-0.4304525103,-0.7897911113,-0.3394768113,-0.1718431595,-0.2709080117,-0.0321082237,0.1680057953,-0.5826152582,-0.9780125121,0.7673371536,-2.6185572456,0.5488153521,-1.2469321044,-1.1426124727,0.312363098,-0.2207192602,-0.073967394,-0.685668848,-0.2459037397,-0.951267304,-0.4794499628,0.5054918826,-0.046779633,-0.8590922678,-0.6358690392,-1.0548342454,-0.3857252642,-1.8334445858,-0.1771519655,0.2326856652,-0.2159407517,-1.6202796121,-0.4658507125,-0.162164719,-0.3351501608,0.0528544427,-1.0224478984,-0.74400255,-0.214032367,-1.0337639775,0.3853151578,-1.3751201222,-0.060260774,-0.3862304136,-0.3877325849,-0.8830234222,0.7659208387,0.1051651335,-0.2501627771,-0.4369016411,-0.5487093851,-0.9125636269,-0.7973003375,-0.1647894724,-0.1056126179,0.4931699356,-0.0365611157,-0.355369327,-0.4295103743,-0.3434859292,-0.5246163271,-2.7119842719,-1.2794488204,-1.2038739434,-0.5532947147,0.4933423616,-1.4116638972,-0.3558443939,-0.7212295975,-0.0390443261,0.5175568286,-0.6724047453,0.4045998728,-1.3147026264,-0.0378515119,0.4476780089,-1.1412685238,-1.1737955273,0.091398918,-1.3101420842,-1.3772385351,-1.133252815,-0.7520648818,-0.1524660727,0.1342385305,0.027240961,-1.2766249969,-0.2129265549,-1.0356982937,-1.1977961744,0.451942954,-1.020911821,-1.3936531337,0.0196022247,0.1790987521,-0.7660199437,0.4959931108,-0.7872795411,-0.6207790681,-0.016502587,-0.3122778239,-0.3229056526,0.1945201701,0.4599797647,-0.118482459,0.299045403,-0.2142300475,-0.0171591595,-0.394631455,-1.1355491743,-0.8641500927,-0.5263412058,-2.3034142295,-0.9271436113,-0.1818739578,0.2545430371,-0.9258526647,-0.1575743708,-0.2774869584,0.1722581226,-0.0112283497,-0.1791214284,-0.0947406824,-0.6701667264,-0.3707208096,-0.6409188514,-0.5541407943,-1.2076495729,-0.6008962482,-0.7366313717,0.8401547381,-0.6206902827,0.5956088249,-0.5917909613,0.8787999988,0.2823087871,0.6536378136,0.8450921064,0.597536314,0.0117764472,-0.8063124878,-0.2417663837,0.9524377552,1.0472825491,-0.4474036391,0.0353295068,0.2866764626,1.1780576307,0.3919335851,0.1074648385,0.7475023148,0.6160480457,0.8645862975,1.5323918701,0.9870782274,1.3795438066,0.8596375811,1.4965830325,1.1827345583,0.6493682676,1.4706593533,1.8523417332,-0.9827009511,0.5466367111,0.4332623968,0.1801027749,0.0992077274,-0.3405924652,0.5045382517,0.9446145704,-0.5619852317,-0.2255665122,0.3197119123,0.6375721164,0.9157116949,-0.4608307016,-0.0003495631,-0.8841151707,0.6177991324,0.8327910557,-0.7560898945,-0.7607413425,-0.6490120671,-0.6801147033,-0.0350515803,0.3137701472,0.3430358098,-0.3121292271,0.1313105002,0.5630923572,-0.3753137867,0.2027823952,-0.2254091412,0.6486868507,-0.510257351,-2.2342075245,1.3174204789,-0.2020474479,1.0840487285,0.7055823174,0.7061442914,0.6760134282,0.5355999956,1.4254331973,0.886978681,0.7549129562,-0.6610168913,-0.1387217253,0.3259764496,0.2796581802,-0.4644060303,0.5167214884,0.1876864873,-0.2582994871,-0.8912161162,0.0156081389,0.1023751199,0.0820915404,0.116109922,-0.751129847,-0.3900276643,-0.2253827145,0.1841360506,0.8322868472,0.262034646,-0.4283041663,-0.4725921327,-0.2301155869,-2.437708827,-0.3259652098,0.0268588619
   -0.5303268447,0.771025336,-0.7988656641,0.5661398449,0.6967474148,-0.5520738004,0.0364998045,-0.5559937015,0.1375473752,-0.414717118,0.0016858744,-0.6825925692,0.919058347,-0.2805354856,-0.0287914263,0.7277602062,0.0264268326,-0.0568933989,-0.2480325709,-1.8632505624,2.1987792226,-0.0234311896,1.0203976294,0.1195194951,1.154592584,0.3280187628,0.8746707503,2.5151907776,-0.3427535264,0.6732021746,-1.8104994641,0.5721464879,-0.5675785661,0.1768048731,0.1608437134,0.7304718676,-0.4217959696,-0.1023552645,-0.19925431,-0.1167126567,0.5881128113,-1.4863197969,0.4031517225,-0.1628197252,-0.4921335068,0.4138511051,0.6067011249,0.8270852146,-0.2432757248,-0.1472113912,0.1801074896,0.6471141754,-1.1991968081,1.2754732416,1.1360980522,1.6609527041,1.4563341884,0.0186395368,0.0516669096,1.2053292589,1.4165311145,0.5365188468,0.6061337715,-1.7273870376,1.1564071746,-0.089612724,0.3894332625,1.0931836642,0.7104966806,0.9634624704,1.2031933731,-0.1576136654,1.6147033939,1.4093404384,-0.6687892858
##end
biasActivation=1,1,1
[BASIC:ACTIVATION]
"org.encog.engine.network.activation.ActivationSigmoid"
"org.encog.engine.network.activation.ActivationSigmoid"
"org.encog.engine.network.activation.ActivationSigmoid"
